function [y1] = myNeuralNetworkFunction(x1)
%MYNEURALNETWORKFUNCTION neural network simulation function.
%
% Generated by Neural Network Toolbox function genFunction, 10-Sep-2017 18:39:34.
% 
% [y1] = myNeuralNetworkFunction(x1) takes these arguments:
%   x = 85xQ matrix, input #1
% and returns:
%   y = 26xQ matrix, output #1
% where Q is the number of samples.

%#ok<*RPMT0>

% ===== NEURAL NETWORK CONSTANTS =====

% Input 1
x1_step1.xoffset = [-0.2;-0.2;0;-1;0;0;0;0.03125;0.069204152249135;-1;-1;-1;-1;-1;-1;-1;-1;-1;-0.2;-0.2;-0.6;0;0;0;0;0;0.055363321799308;-1;-1;-1;-1;-1;-1;-1;-1;-1;-1;-1;-1;-1.2;-1;-1;-1;-1;-1;-1;-1;-1;-1;-1;-1;-1;-1;-1;-0.2;-0.4;-0.4;-0.2;0;0;0;0;0.055363321799308;-1;-1;-1;-1;-1;-1;-1;-1;-1;0.2;-0.4;0;-1;0;0;0;0;0.0519031141868512;-73;0.0617595167002487;0.052;-89.9006335728851];
x1_step1.gain = [1.66666666666667;1.66666666666667;2;1.11111111111111;1.27272727272727;2.20689655172414;3.39130434782609;1.57635467980296;11.1153846153846;1;1;1;1;1.01538461538462;1.08771929824561;1.03030303030303;1.02857142857143;1.58356164383562;1.66666666666667;1.66666666666667;1.25;2;2.24242424242424;2.30769230769231;1.625;3.33333333333333;11.56;1;1;1;1;1.03759398496241;1.01923076923077;1.03703703703704;1.17647058823529;1.57493188010899;1;1;1;0.909090909090909;1.01587301587302;1.02857142857143;0.964285714285714;1.02702702702703;1.50520833333333;1;1;1;1;1.1;0.833333333333333;1.02857142857143;1.03448275862069;1.59668508287293;1.66666666666667;1.42857142857143;1.42857142857143;1.66666666666667;2.29411764705882;3.31428571428571;2.11764705882353;5;9.47540983606558;1;1;1;1;0.985074626865672;1.02040816326531;1.03030303030303;0.829268292682927;1.60555555555556;2.5;1.42857142857143;2;1;2.71428571428571;2.82758620689655;5.33333333333333;1.66666666666667;10.3214285714286;0.027027027027027;2.13243337209073;6.63716814159292;0.0111172482290882];
x1_step1.ymin = -1;

% Layer 1
b1 = [-1.4818818149216628;1.4863999403853605;1.3023743149698155;1.3455094982003502;1.2429957720357869;1.2872467360257003;-1.2481558560390862;-1.2132485067667544;-1.1661362618771964;1.1709238018224968;-1.0716276772358211;1.1202600917021464;-1.071375230189781;-1.054953631046289;1.0186173477613654;-0.90588149095826642;0.88963012000751973;0.85785432643344861;-0.78730116411352902;-0.7918599949748647;-0.78701717816372385;-0.74290546013477265;-0.72022036615841345;0.69712302798140668;0.61618375642174239;-0.60626661318242703;-0.64738529731072458;-0.55517991261553445;-0.48686794717372445;-0.48232154719334414;-0.43176360797351843;0.45831445985066444;0.3238993605111905;0.31105744852536893;0.28241819850458139;-0.21172963610092507;0.23670631535652734;-0.24348183062329556;0.086710092409950881;-0.20220603494325304;0.04136441268292345;0.096734641214246145;0.022753355645755605;-0.017987534859918858;0.021777126849309894;0.034530473825958467;-0.077648185883797322;0.14679712458626268;-0.13856955608162883;0.23257908223364906;0.2782873241535701;-0.24319965856175957;-0.29973185367760596;0.35155310726756744;0.36906537090912728;-0.43903253530777098;-0.43410508028357681;-0.50173959922257194;-0.50138029437488729;-0.57886681864151834;-0.61258468432535851;-0.63767335178940621;-0.62455483798631151;-0.70201760183731554;-0.72145138289242872;-0.73364999801590414;0.75620364538004192;-0.76869740046604274;0.8455887941941147;0.9050978588420433;-0.88051558723898393;-0.93788829488577141;1.0423506261242304;1.0407821100997692;-1.0667124980359126;-1.0749144267996367;1.0456279401695718;-1.21607132575976;1.1505954513759604;-1.2776971701605575;1.2544018971338191;-1.3006134184306029;-1.3222801237584574;1.3107361682845489;1.4166163878139635;-1.4510412838067701;1.4985530710772221];
IW1_1 = [0.2086535417650566 -0.12968675541405875 -0.17830310260269508 -0.20719767753354859 -0.11694486128929577 0.22664682567385558 0.024285536880159997 -0.10633130914548433 -0.080652515924287696 -0.009644664495054165 0.09921475296498454 0.14377645928235289 -0.13706383075265086 -0.20057975948663492 -0.22582762032965353 0.11524450182281262 -0.26180453759311412 -0.095179175256786819 -0.096925289504629503 -0.25518407993106357 -0.15911608465345911 0.11442180806083324 0.15666293061655751 -0.12488034250045413 0.052991733300972933 0.20596202300866162 0.25037356576161346 -0.063514269282732086 0.21069103450190296 0.18785534151040978 0.2667835548424119 -0.15569021153688595 -0.21961090376732242 -0.14145723984491151 0.057152083717190355 0.00064811264618932888 -0.047079142378642046 0.022088081757465194 -0.23745138164983451 0.25772825063096133 -0.00078272608107910337 -0.081737087552867474 0.070248228887641151 0.028867141895965853 -0.0056224021433506199 0.15610495717193679 -0.19627153947504142 -0.066802957309180788 0.051103965408441733 -0.15924976553778664 0.088187173345325512 0.071026678279195579 0.19527370304578409 -0.10743273643688431 -0.00903324187981633 0.27115418944162639 -0.15743110989268511 -0.1789996757443664 0.28139231943306364 -0.10290368977128198 0.20996028520049065 -0.2536060679993733 0.27137919760957852 0.17385139037680106 0.17398689922179497 -0.20776146953118321 -0.1301757543524078 -0.15036440486909422 -0.0045572481682175196 -0.011342183606444354 0.20003009064545582 0.036145335418310019 -0.28498859413067118 -0.14149585496904815 0.047067946228437629 0.19445992806724469 0.13281732815210903 -0.029465879692802708 0.053850148593536255 0.19819186525860305 -0.041814462824500451 -0.1434383449641092 -0.10812232295800518 -0.19138785050576795 -0.23834972348968664;-0.08825533407248784 -0.11089178920116143 0.098454663726191841 -0.11737972076052577 -0.22838762066721918 -0.2352425240913219 0.19479197924901723 -0.016586413025335447 -0.22949185192070862 0.25738993143278921 -0.15027665325605771 -0.15310334103832574 0.11483543015213142 -0.10859339186562351 -0.18297267687393481 -0.12280492542319693 0.14237945509722891 -0.21876713745314097 -0.16106216713566379 0.18046106189162037 -0.03496600351436132 0.22089371496494281 0.019907377226889081 -0.040154663292962585 -0.047745133947473394 -0.2766740896740798 0.10682377516525089 -0.22353453235125317 -0.047880868587202766 -0.10109056340207621 -0.029750896002910178 -0.22648972700881828 -0.21892678741131277 0.14863041124670914 0.21892292546854536 -0.20137451208596135 -0.11338578815843589 0.12845760625261388 0.16513096018322834 0.1919359182155716 -0.016610280382572416 -0.039353677491010826 -0.11129031730768833 0.0059151754763535399 -0.050715494042243757 0.27906215802642698 -0.21711442522646363 0.24043463737787876 0.162375378724812 0.10261129191860012 -0.18858955632631977 0.016052121915492545 -0.18975406023136263 -0.1580242347992365 0.23039055389216007 -0.16966679011382632 -0.029169504395172737 -0.23707637368657722 0.18338684061486291 0.19874371580137001 0.13777337222129443 -0.27352699916347012 -0.093632463403953231 0.1376028785950428 -0.027443021279771114 0.20778614856663319 0.10307607467932627 -0.21370010019356048 -0.022427543624282731 -0.049617388959329753 -0.22619585318903643 -0.19035272784008464 0.092164281827734604 -0.14599068864965289 -0.066351620851245421 0.11234998293963575 -0.13517486135904652 -0.018844155847053713 0.045522612165263474 0.044316042546309428 0.013619410102955498 0.23080370065108244 0.23722399173208877 0.13635168646746781 -0.11691293557665815;-0.21133382858039609 0.13942079225235043 0.080829052069739643 -0.39470881590097795 -0.25308549175974104 -0.0061359735352077976 0.045243149792902969 0.25026838384752592 -0.25497848700852493 -0.016251610539275398 -0.072669031737583281 -0.11080846656694732 0.12421339476830656 -0.19145800590793263 -0.24984303250444745 0.24300993207836491 -0.11775236646489567 -0.30079953165447104 -0.32587102444614624 0.018389400340019048 0.042201452183202932 -0.27635143049689936 0.26358247653268196 0.018314367025539242 0.23125911817801145 0.26241873839254548 0.16671939763824992 0.20226275059354695 0.24590776861158009 0.020703920927395428 0.17405644508813667 -0.060601761967636884 0.32023608187228225 -0.20258031616746186 -0.23471098831087758 -0.20289617361888412 0.028936361502500944 -0.092005659682996177 -0.082216243507300113 0.052069704289069603 0.016598562573060346 -0.28657000666297833 0.046532151429495648 -0.044839862436575437 0.055484939024849862 0.066185689005423598 0.21565037413275262 -0.2131958545941553 0.16105744843949046 0.16227293083491318 -0.093716423108348781 -0.0033649656463625513 0.078586526601899284 -0.093190670717888641 -0.13972625748109985 0.11413505194913708 0.21932940752236865 0.09782370958212902 -0.020914095658980152 0.30206887712056152 -0.0075992869878022222 0.25786313517836623 0.14512812002070638 0.1437434265574756 0.0579413609055629 0.049291868301949565 0.2140648941217427 0.10578458326473328 0.075036664515594306 -0.23224215941027812 0.15795545956619661 -0.32378388074499703 0.051772246404137245 -0.051772432456692198 0.1109268329113165 0.18386016571216046 0.22891867901090243 0.26565455589183629 0.021153635894165246 0.25384257852028946 0.27579992405989762 -0.14948451843280064 -0.22434930477936174 0.095126166369373877 -0.0039023834068768869;-0.25131862926116622 0.045362095897328078 -0.087017011716234813 0.27762285220275723 0.14869264005005328 -0.0086164175273662161 0.27657276589631352 -0.020805269462476725 -0.076041666540730996 0.17722772704426745 -0.26558317590692543 -0.20546165370455421 -0.076200143778714466 0.014894490864519031 -0.0022205357235953065 -0.22725174807173185 0.12932516163009528 0.20627716096889215 0.060087032056626057 0.14932983908017097 -0.30500831116686739 -0.25616369230076774 -0.07202631374842472 -0.22157347746661321 0.098557655872719613 -0.0093851810045581553 0.1133609246921288 -0.19779366182429844 -0.16523761027411707 0.21796230884544732 0.1797966405337528 0.01799978176782566 -0.10071339647404109 0.10201676487506389 0.019679201559332223 -0.068014810365176884 0.21937987608302303 -0.14898460024519053 -0.15672660001561012 -0.27312237120936245 0.12864362031260729 0.011646914635947879 0.25459085462213576 -0.19627678919999958 0.074007365616111986 -0.25704271176721649 0.049223991000466885 -0.12981665955022478 0.082032379729518226 -0.28086783903166113 -0.0065421929039893145 0.18733564425490778 0.33121488712505381 -0.092487465949717212 -0.17004193361826164 0.13921543071389375 -0.029977563201765797 0.052351403344207723 -0.26529144715641501 -0.25177891272461883 0.35216076057382401 -0.22071427546160843 -0.25720238845085697 -0.0036259696579492295 -0.028222240858510831 -0.10093157505138772 0.25968874942506592 -0.26368614860101852 -0.12217754562618202 -0.20980465589177724 -0.097072295679880682 -0.090540707987749297 0.20634878488817424 0.13415153108423297 -0.066777768328787485 -0.24207524424588422 -0.080005363052527201 -0.013250170832612148 0.34304828572030927 -0.08385743323258818 -0.32223170588104572 0.052581740312282355 0.36157867988115305 -0.069372914444819286 0.38701344157122086;-0.15914974070945159 -0.31070279032534881 0.14423953706738551 -0.059014137474709398 -0.030399274305354849 0.19426211617056466 0.066308473033142593 0.15012847656980238 -0.052669832364595874 -0.16151460911511886 -0.022442964222374975 0.03537754992569133 -0.10365784899101738 0.14994194090017449 -0.16703501437807922 -0.086431098665733772 0.081855248630235009 0.031283754663863267 -0.13742558768543869 -0.14564855415960892 -0.25043236824736353 0.041047374100217832 0.1460108672082952 -0.054784487657355628 0.098180685156874656 -0.11354941806429054 0.20866625300188438 0.016101693728855102 -0.22150475921302165 0.073428368370416677 -0.12652885667810723 -0.21376106987297433 -0.0021978667366984055 0.24019692850837548 0.29081091898789219 -0.20690894287089703 -0.27095024592471545 0.021859345599330195 -0.30391965203518501 -0.2009942837606207 0.29631292334356746 -0.12626647062601074 -0.010989380967142434 -0.06329169384384116 -0.12368263000250419 -0.37807875449286521 -0.15643757104842393 -0.18753321900803027 -0.13999765235546913 -0.0042686415590927522 0.034881190027689295 0.079199606346775919 -0.28382606026647639 0.034744963802419503 -0.021597217725558424 -0.090023227945983803 -0.21159902033782518 -0.26019232749683341 0.31685689203207063 -0.13194686899818622 0.17884520693374259 -0.033587015757131078 -0.28884736904076613 -0.012313298822501484 -0.13631220746277764 -0.32997895093305152 0.018221196382111012 0.19397234401065436 -0.29379904621943587 0.17460376075370812 -0.016714615964517569 0.044891193984439325 0.043433817650323142 -0.35999963394910256 -0.22817243504194545 0.067593566791705792 -0.27429305372513618 0.36205907469103282 -0.22839407244127902 0.080977317049890654 0.20616222839607073 0.080697065701897497 -0.20357993300022897 0.05700129124890637 -0.34711389084831118;-0.20980452331886459 -0.15030729663121631 0.19221852986715049 -0.2357556349910585 0.17541758622426576 0.020990627363172823 0.14766257752881937 0.043463217433507506 0.016979114713289424 -0.10775304628107681 -0.16315376091258291 -0.17527850623718999 0.2102114035489229 -0.036300457932195995 0.10398775227950492 0.0082734241002497683 -0.13824592863478674 -0.18383434894977199 -0.042256741332542806 0.15620410092247863 -0.20432161650452998 0.13458872678993727 -0.094773502675878807 -0.028475968410169087 0.30737200360282274 0.14134017320734379 -0.24264949467632144 -0.15733859651509841 0.1805530546662229 -0.21694684321534127 -0.18430756352720634 0.0044725442714848391 -0.035431295172507413 0.13077752939117582 -0.28387956186329594 -0.061554304457417164 -0.1423881639183415 -0.12300536177316615 -0.29903037187135872 -0.32574208763376067 0.019497396982043905 -0.15181809907628344 0.24151096888148452 -0.1662311431717817 0.18864332819575649 -0.1564799241914786 0.1393798455012113 -0.18848549591665709 -0.095038721726087849 0.11727350526820747 -0.1105981615175646 0.080682174632336734 0.067645213971776502 0.047285688129693693 -0.28065029427401528 0.051323720756681401 -0.16238877459013223 -0.27168623907393202 -0.0022615839924915509 -0.30461063958589135 -0.054328072489841173 0.20423741872417933 -0.16334511622348455 -0.23448001739303917 0.11000749018082537 0.11798916173188734 0.1292227351331483 -0.24038958384709111 -0.039298472281248512 0.063680628569235537 -0.21013224376397741 -0.086354687088727525 0.064472787848643645 -0.054811307768132825 -0.20054858589877114 -0.19561703474961237 -0.15078907053633442 -0.25280620155140132 -0.086925613563806792 0.22036562045963107 0.10863312832848375 -0.22929667849921562 0.18974254500245244 0.052409462177766868 0.015700519003194403;0.010805837114533218 0.26283032302509002 -0.17175027585817113 -0.21870537251284985 -0.11330007488733707 0.02048711223284428 -0.011272843284373498 -0.17831860398219143 -0.16543099335189601 0.196174927008686 -0.12623969497223045 -0.13470326973437749 0.2007316900985914 0.27258431291137791 -0.087978258407009652 -0.094120015270026253 0.16359802277000993 0.067552395836196044 -0.21590941424213644 0.16194796122795393 -0.00072010165763885733 -0.1045206498004809 -0.010263645789238093 0.13924607417835144 -0.13135157549820556 -0.2603399536817978 -0.14876299494909118 -0.089057246866744752 -0.06232590230287377 0.041938077168350296 0.16370901237477467 0.0321803932869313 0.143337734312249 0.2018771246433585 0.10832663880756828 -0.14277461889449342 -0.24842268564571726 0.22729184377622769 -0.18294851667060996 0.29290438297355981 0.11482291677257057 -0.10877707614999217 0.19757510372187967 -0.011294577175949325 -0.14959142635191514 -0.22902777203865171 -0.2041812020821317 0.17390900681621935 -0.030656071689051798 -0.007583970525820263 0.04071998902135366 -0.24789942111941968 -0.18680313001786039 0.093612966020132415 -0.027929194580821482 -0.25080081018586375 0.11040381534155423 0.0042666621849898317 0.19746745345722067 -0.16852552363100617 -0.24936504390705125 -0.13976863752862254 -0.11653549706897717 -0.1114254443068904 0.2788172054232535 0.13329041747977693 -0.098349097990398315 -0.25229644613323554 -0.1767990824554744 0.23588768508526625 0.10943812440218557 -0.017621076557944131 0.19966680543411558 -0.12216881752682253 -0.079398915066366552 0.17680016055087597 -0.042242383072539053 0.033154194988703506 -0.056348400592074438 0.26297704512943876 0.11269366813297471 0.24645065382428147 0.15898790571306678 0.19187396980661472 0.16415558034736077;0.09036332086364704 0.18425274889021614 -0.054207244830415814 0.24665655579977039 -0.23606585755996123 0.30899314378106324 -0.20086051696929152 0.1008377765083536 -0.08567639166176387 0.069742405508185945 0.029207986803692413 -0.17096525960292092 -0.13257284096183558 0.16140212829646736 0.16912946095231179 0.026901697715827528 0.089881775771084443 0.15404629571706163 -0.18704409200042929 -0.21218431664039172 -0.1918350415696313 0.073615748615639978 0.096441257518652193 0.20502390601965018 -0.17549551600383895 0.26457090364630176 -0.28218316650399916 0.050908797141784361 0.27515759030799447 0.27672838603797834 0.19870741369285053 0.19022532917964147 0.0066075068269380137 -0.053247031611521563 0.034500288941321448 -0.2089383698764021 0.13660161899647247 0.017671532866104917 -0.049540672167656785 0.11366553892513419 0.21321133273532594 -0.13921179241645332 -0.020713406827172952 0.31549723055878576 -0.12914651077848818 0.095888474141376551 0.2779288159876071 -0.0099084787203664662 0.09166724190694775 -0.0079745144011020581 0.22391960317819715 0.21129523232811723 0.25249676890472422 -0.10516573765829412 0.20949824993852603 -0.10221247080208427 0.23384584418449025 -0.25047711629062597 0.2870005676360553 0.26527887139901635 0.20090569727139934 0.13994640451543303 0.11309291300353902 -0.060780376505361881 0.11501169140977958 -0.036606699870731757 -0.036216120057516628 0.13951204808876932 0.1477348109675938 0.13175092682924963 -0.17186189157742446 -0.090234511598561357 -0.014082625606114643 0.19984097299383502 0.10123637835295667 0.011753451108241894 0.24723857497929058 0.096960873074027953 -0.22026184754794401 -0.25858471785818427 0.17312385689221549 -0.1257132896790637 0.10171790169592194 0.0079484774831734047 0.10194774380545914;0.076573277144217966 0.077689389340331261 0.059399605616077322 0.20422233266967274 -0.14347961574917925 0.35509977992780856 0.062684724273905063 -0.13742156259391786 0.12204940128929273 -0.14996141229597801 -0.1794943356106018 0.31780421437491946 -0.013861499784405904 -0.24227863297749855 0.16302817083531723 -0.20056700223443735 0.053266238729595135 0.26563756045493236 -0.15291541312358922 0.074817567348863898 0.11693576760984195 -0.12455342745239578 0.025474118127865264 0.35108231514254995 0.0073680725904840365 0.012011282571426734 -0.24865685481094954 -0.13074602353268666 0.052470889099188282 0.02023757129798439 0.29017481658319283 0.15959613661668348 0.27446442165936996 -0.13965389015722354 -0.22795675900665563 -0.064677963098991875 0.16899075866799301 0.053905349958847923 -0.25038378679252765 -0.052376870386535955 -0.21438197062934106 -0.10217160235674989 -0.032300421629363731 -0.04807140088724407 0.12158605648438181 0.14742080755207462 0.28728861873318084 0.29950794101032369 -0.14619913536523418 0.094184367831903745 0.094363059704089952 0.21661346957389302 0.25732825325989045 -0.056836948968736471 0.29960554878973106 0.1738366454044967 0.22148400886679118 0.20624790421307915 -0.35932392241151906 0.054541397817324928 0.14142039545218676 0.059814813478468697 -0.093557671320655206 -0.12288174800894811 0.24210316276933022 -0.13369566130157937 0.039687066331547546 -0.015993634249805197 -0.11055257047176048 -0.23530388356024204 -0.20753270246001154 -0.1946211742547376 0.037845364304037558 0.15977760028067436 0.088143090395024493 -0.13334185558752606 0.23398188080118792 0.2247145653046401 0.056091640564665771 0.13275586642349599 0.066855988634845306 0.12408757825137592 -0.23207520838729598 -0.29295349576202395 -0.11469309239402357;-0.1365100341597516 0.14854396781137666 0.22678132154930403 -0.22082321414080258 0.025321143009335235 0.20654691979599482 -0.019059789884113838 -0.18628527262294661 0.0026130967573075609 -0.23244548646004046 -0.008490054634331742 0.12782748911404804 -0.037648333198901054 0.071745859412139942 0.13452168044415583 -0.037812710962697317 -0.24644050395352121 -0.087083044985467276 0.18696091762259551 -0.17084911013892379 0.25346958180726925 0.097353096079131243 -0.062283180532277695 -0.21419491872042534 0.25528768554468273 0.044891853729125283 0.15643382196747599 0.10212842345339114 -0.26241932980342053 -0.2699932943625804 0.13977007009893419 0.069826699645363255 -0.071865372529288027 -0.25464661179238768 0.24358178116497892 0.22986415367088303 -0.095385794678361266 -0.17248519229301756 -0.14719766693521247 -0.040103836598758553 -0.024948946465055129 -0.23065652008043988 -0.031563795910252629 0.27916706505099365 -0.076095926335920036 0.025757426792105072 -0.013072098564628144 0.16614656770684338 0.1786745962010903 0.084489321638303458 0.16872853931602916 -0.10879252115951595 0.19682866319305684 -0.13395394857378837 0.25702511019165558 0.1033658006307842 0.024246596340535716 0.087155760358648846 -0.074886885949792759 -0.18749916731970742 -0.031045383760864256 0.097111925520003528 0.21921741707210771 0.1223297521928669 -0.010371672379431228 0.2260688220328316 0.24929361060838304 0.0052030099546302609 -0.26217045040135695 0.033377417214689856 -0.27140994680413133 0.084632476141435806 0.067901394265458978 0.25482209516271054 -0.013953992417030629 -0.20754113977879132 0.02669985016451332 -0.23718098870171286 -0.075001698179617937 -0.12118584680876525 -0.022457779719588879 -0.21471246901710886 -0.080101944807167744 -0.28227384417897661 0.047703063101041152;0.11988975182491447 -0.11099361790097695 -0.19809152796202836 -0.12541414147584234 -0.062227066215085336 -0.18012646887039521 -0.046092336396477543 -0.10095704476934994 -0.17730908002048368 -0.041392323764629479 -0.18926576242355617 0.019071855898356319 0.22091247061178138 -0.11297128190108408 -0.079225020971783883 -0.19393547574026615 0.19365536480627166 0.20276644290613766 -0.17648566916192979 -0.18808485969352393 0.21767997470723008 0.011484879596722295 0.24871216698220128 0.14932911060249604 -0.22933336314863922 -0.27320870245386525 -0.24205803111908766 0.090391086633657067 -0.054528177159694789 0.24346997378351981 -0.12400446989501412 -0.032056072267339197 -0.21792574101075424 0.21987502257444314 -0.13480463428833334 0.19345235248748463 0.25735684556914307 0.20283247279229569 0.23465268947061255 0.21915248286009598 0.085981653422477447 0.015301510381737006 -0.12734435851706555 0.1408241443979362 -0.13594994330952953 -0.080225706141171277 -0.1802166974353088 -0.24015910821205677 0.27099805756042078 -0.13201400971472102 0.043359647325979009 -0.0091178035287490314 -0.016537922653584017 -0.15761122916999007 0.076699996995409053 0.29829033451610848 0.2481238460107997 -0.081815719218521196 -0.08444379707977695 -0.16064985906014889 -0.21126389738460283 0.17055787568811953 -0.21397731519695962 -0.14885935090556193 -0.1699388331893531 0.27301299485134262 -0.091829466038487184 -0.21861842368414311 -0.19158014500524906 0.18134544598533558 -0.13100658729484729 0.19136230646777436 0.14449728139716547 0.16427431649873889 -0.093963508892063549 0.060167083204421566 -0.03986578438332318 -0.14651183771999216 0.020359222322948737 0.22470569646814781 0.065924705083229021 -0.1731456430213881 0.10741277988339509 -0.06774009516749474 0.19308601812865342;-0.25265512078735769 -0.1993755300063704 0.25244650685753967 0.20364044404195805 -0.16431779593673454 -0.17765177762766149 0.20534197398683821 0.11606528443599727 -0.15151862336546376 -0.081348611420418035 0.25999963002939697 -0.16634882224519615 0.28938718732256824 0.040220890504619827 0.1762547715799607 0.27123906987253177 0.043502166550348262 -0.10491586621364425 -0.13909844017201684 0.27366335358586397 -0.017473140677360176 0.27057094961201544 -0.22327546657993083 0.19044154277155262 0.18312289091852471 -0.078009265006020526 0.059936371653868788 0.16222880998675926 0.073065890031947356 0.0040490317726120297 0.14703755419368877 0.031509857235129633 0.2428482959568779 0.20730602231446102 0.1264157029382775 -0.030553717471375391 -0.099838334660449696 0.1950391520028362 0.20397500232202537 -0.1787054882662861 0.086840681112079002 -0.026814949327809739 -0.2872968200361633 0.16030202620939907 -0.064294887742739004 -0.13240886375082758 0.1354478485816866 0.20540472679642438 0.1369498634266392 0.1976735170209403 -0.22793165743427155 0.21654764567763607 -0.012771480488461912 -0.20283096335414572 -0.26072482871192754 0.011492321299819263 -0.10938714277527359 -0.090034890602522094 0.1489256122001589 0.071719725662463207 -0.21955318378121669 0.061084861536705497 -0.17210428309578055 0.22675844404235554 0.055595488623406228 -0.11304689385547798 0.070964875826184576 0.15373218749077641 0.0022772919957073879 -0.14462630325202094 -0.0011763782965297609 0.074551551716097814 -0.057711293361878718 0.16595388156993945 -0.11767841755030627 0.058913020316523179 0.17608712428954376 0.15856776983102383 0.032886236990443352 0.046853472131048873 0.12253768981809786 0.10927956339018897 -0.16574192479690564 0.18324710855900109 -0.15920267574907523;0.22777092802468227 -0.17695139295314855 -0.086102411826035161 0.17419414678429374 -0.023466424812840263 -0.096176586641104414 -0.10768408917659622 0.2128617536124558 0.18735721551238527 0.16744491918714885 0.26827781214796481 -0.19309148497394377 0.021987327115734132 -0.18298328381293055 -0.054287959520710458 0.00093526407522200993 -0.12107635851271327 0.028836028521704041 -0.032369488700147712 -0.20149479134318887 0.27433284540486341 -0.05006220118948098 -0.116861377481013 0.16399970710105477 0.044299816136734699 0.16490691010802694 0.17242062902424254 -0.25481710258376444 -0.029578757748951408 0.27477990671670738 0.066246009497627642 -0.15463245291030678 0.036078348827829128 0.18335893215954485 0.15457280884826366 -0.15873202988108576 -0.084939896420513236 0.20640323148694995 -0.049681169435953097 -0.17881492964251219 0.066617956886372273 0.016335203491862349 0.25440590253896583 0.076621483482780375 -0.039910040071004786 0.18159818918062762 -0.23196988792471496 0.031459402572392062 0.1284617055713069 0.18324222195636891 -0.1116610859411146 0.055049823248953363 -0.056325305043602433 0.084180631690952828 -0.073467745866438963 0.29731242738514541 0.069906331367882546 -0.13115255288887326 0.0031100015601131532 -0.10954574095915741 0.24083098977663558 -0.16764117520122246 -0.014239372310442807 0.23522687994250127 -0.16852386235506314 0.061575939059179886 0.13775422674539489 -0.0112228580878245 0.26266282282796577 -0.16526474289191123 0.11033879025986304 -0.28516197759128814 -0.18424555310321974 -0.229757744379428 0.27127234327934435 -0.14954475494785774 0.019554867068603494 0.25868123784317898 0.070143624071247787 -0.064067177470724254 -0.1212706178487733 0.30109710115209742 -0.13974182728585022 0.19696544249177747 0.21134550308738956;0.0076063394790957563 0.11109400373024521 -0.098278290652367109 -0.18318847464151497 -0.046420738950616679 -0.16507219487201746 -0.1603287852141104 0.19275902585289922 -0.16464803698843211 0.22807088675806569 -0.25345029126947322 0.1002063543810673 -0.10178454318886335 -0.03231252617563643 -0.0011469613826315212 -0.055920151527039282 -0.25271205015467058 0.18209456251292283 0.22512125768998242 0.21719249190301701 -0.17281877302767701 -0.16909341381406254 -0.1477806118579002 0.23504615410941168 0.2007399340248498 0.21004529165485003 0.14708028031888587 -0.21468244517355053 -0.16260655464903379 -0.20338821733340862 -0.082572361542288142 -0.22704098955968932 0.20880352488007128 -0.021745501003165926 -0.20922621590639928 -0.26287059638259591 0.024243021017386131 0.14402690667051554 0.22880769275235227 0.18433172984367779 0.079979224937552898 0.0090618888476644219 0.11950857162165909 -0.20894070692727118 -0.19495170455912564 -0.18963688773356768 -0.21223978296336002 -0.23310006203037953 -0.15022722868975485 0.23977201391641093 -0.20260965047336321 -0.10179915660508847 0.19163145676061691 0.080588757717404091 -0.16838438433688291 -0.16600002563508717 -0.057907283822679505 -0.14480961757660207 0.10612024550833714 -0.085476813783526229 -0.0061052360174424572 0.24118266837983035 0.036068850384532454 0.22247323321475293 0.11935098331701535 0.046288407700644185 -0.25926159332809123 0.092235592777234462 0.13224103620313538 0.019094117187920093 -0.12088315527807274 -0.060675355240943633 -0.089335089764494599 0.095466799954909684 0.053831531013372035 0.13902726869166937 -0.14805464531964757 0.12473821640210914 -0.14786862911491389 -0.07460264816035575 0.067859253084325638 -0.22083860655688781 0.076473497436599661 -0.21575995031939268 0.17922054327829259;-0.04877033187978283 -0.091402674638888876 0.046898568934957918 0.16957776566679922 -0.1675969419992426 0.15596712914265315 -0.099956226097632619 0.20956627878419035 -0.26599350478995998 -0.11526693284530654 0.25452087205335028 -0.19936661234149733 0.2540410467245709 0.081190604813390119 -0.179411407624395 0.051663386270512979 0.24288286068241732 0.29085487808367738 0.10168562069863395 0.01755273465416907 -0.19036288070670371 0.19578540666543573 0.054814042506144606 0.14865583903795343 -0.11545887438266976 -0.11160199570264125 -0.22176462727550136 0.066233730224627224 0.0050831555912059104 -0.22719036464945505 0.24291186398609987 -0.20412245971206114 -0.085837409417958865 0.25777194867941472 0.15552498547807939 0.23190419538668852 -0.18096848696536949 -0.15617784697625595 0.084432457338503963 -0.16092751684280171 0.076757973892022741 0.023629461558027854 -0.029030833649578952 0.25174139002086615 -0.10405425834942665 0.22471068961181853 -0.17797560764306053 0.12940242997187887 0.13940061823314293 -0.16639582829216051 -0.12753184327597789 0.2644585455019392 -0.26981248505885352 0.25222309752390587 0.010481849066834959 0.17844004099798719 0.030883398629716372 -0.0094108663759694296 0.21192561871642038 -0.079770873390839561 0.069444664419608573 0.058880217414718203 0.034557370294847865 0.039898403497317769 -0.17909534398473778 -0.22719692669606995 0.066937786500390867 -0.21361751863551429 0.063528117642177334 -0.213005059183246 -0.16113075032636448 0.27918008014534912 -0.1978349850940436 -0.23864911428342037 -0.0057810795739993599 0.091614678581339398 0.059839990592184561 0.025081672530077159 -0.10165168337766285 -0.014815896536271196 0.12675706481934673 0.1638321224083957 -0.0042951941402001904 0.1464583476199684 0.095253545950322926;0.14344041227938939 -0.11517548819205602 -0.068320601327609448 0.1708014205614482 0.17561464470064136 -0.4002962888782412 -0.30087642599048348 0.17685526894636056 0.12593672332497666 -0.12528937378113675 0.10267966691598729 0.13430698884701925 0.15886096997456364 -0.050892770238189722 0.25378241559988957 -0.34872921109814953 -0.2787556463373565 0.11967724768013858 -0.050770510763935309 0.27681222730670163 0.0886425736386173 0.11921409628445317 0.25707594401528017 0.13277340140274421 -0.25023895621659392 0.098395667080344695 0.23051078142459 0.10421498937008754 0.1919773436145964 -0.18180262189036836 -0.14767863172943932 -0.14774105665511755 0.099579254113761118 -0.21132901478391308 0.019710208307423954 0.12696442527293494 0.1072214661246827 0.0019552953611389661 0.16408970279861368 -0.091282534272226365 0.43151252251158406 -0.043184772912921283 -0.34456687803171854 -0.15888867504849227 -0.21953136962508552 0.055617672471668066 0.0056011153021133728 0.080642621234011266 -0.20605958804218455 -0.20680192969717587 0.10461897289994729 0.26407350288292769 -0.20000144016434501 -0.098763683965032781 0.1069206286226175 -0.094722541424710205 0.008350435453965372 -0.10401241088489709 -0.04065083283432936 -0.10246239746942497 0.098420785205711847 -0.2494311720494268 -0.0013570509967339634 0.088520613496860676 0.086712457133898926 0.125247595866502 0.11526315847119119 0.30181003510573362 0.12386995823464572 0.081359196214830329 0.057743960876404106 -0.053699195248979779 -0.086178583784178767 0.30585718930665751 0.14597050190335079 0.2006071180084481 0.064004886554443613 -0.30133383826390481 -0.34393031312878514 0.19482810999748101 -0.15688262406063289 -0.0011906562991768879 0.087390369944120361 0.17593669322659358 0.12150885853973291;0.034687234557659027 -0.059074656142267722 -0.020351339881477769 0.26068232215405973 -0.19848989061797345 0.14753154642732066 0.19487277172031595 0.031627198567831367 -0.022344972326434842 -0.22514705920758615 0.13143292143995541 0.32773828915861192 0.19698615898030958 -0.0582145736884742 0.0094609121488235248 -0.19445795678244654 -0.20591514320154808 0.071953853884810404 -0.25902749588532897 0.066617334564355951 -0.26019247452045846 -0.32818346470915055 -0.11776897653872272 -0.036029269024562938 -0.17753433796341617 0.25221410866638472 -0.19207416943129013 -0.091203066387716455 -0.022350240760057136 -0.13038724457435469 0.15901849189237 -0.046890160643235132 -0.3368057474602566 -0.18509347949797819 -0.18527160332955239 0.22025274201785938 0.10138028184485363 0.14164991619601747 0.16294383092431805 -0.066978615326169083 0.11299499424345592 0.26505391020280172 0.11211508620737586 -0.13355235611992541 -0.14300530250012508 -0.20609727386342305 -0.23493034539856375 0.14386288748144194 0.00087044945967504773 0.067255588361146326 -0.084985632727565014 0.01415048890881271 -0.15485226295166787 -0.079217025992113152 -0.25941829304609115 0.14258097482649995 -0.30889087351699063 0.21390554607367368 0.14844334503788301 -0.080940261141098369 -0.18082868771244442 -0.092241695088062015 -0.053263046685193105 0.29232749700609506 -0.098188562350588496 0.072297000416612078 -0.12115301090046414 -0.077544368614153134 0.26519371790377028 -0.25950529380994219 -0.11399602864640077 -0.072768802006478644 0.10734212778603323 -0.22843702324233764 0.1485818954264071 0.16282104727915025 0.10105386254540644 0.27432724884424442 0.24456284823978378 0.12152704306540531 0.32993917548745094 0.15782013856615876 -0.1060151361492624 0.18278685719536591 0.14117104233543581;0.0074123305522160472 -0.10658539231590512 -0.13631287143070331 -0.1456928186700979 0.1467070164818092 0.22614414261546276 0.15231814037745756 -0.12332252017725751 -0.29453744202462923 0.1237706283864717 -0.01062282423715501 0.24437191915963669 0.23475186432312903 -0.021933795786721482 -0.19383106345228562 -0.3579699890691786 0.023736989011584515 0.15823327319843636 0.091504122099001564 0.1768989851174721 0.27978558583619051 0.16758048015964577 -0.16321850946156527 0.22274652893951025 0.093869667193890949 0.22292376834112412 -0.044645508519950694 0.10799513027206389 -0.16264839273640508 -0.31756169555481734 0.10402792861776214 -0.13170461033076877 0.075749684521161889 0.045462815235262799 -0.27610571295842251 0.14379606733220507 -0.010406228748868254 0.22433713998077087 -0.2397330628462131 -0.22335447673133638 -0.21371720310748013 0.084962134218510274 -0.065365002687016921 0.0031119034255168219 0.04627501997242605 0.18414485804810424 0.23254265728913912 0.057453302154653538 -0.24286046642846698 -0.098191573537893276 0.0070352937555042024 -0.032099084186904644 0.28605006149095324 -0.28099647420299856 0.0021256829471159684 -0.31552052255544666 -0.068737220718668668 -0.11484418743526507 0.11455720439419069 -0.12058330932677236 -0.057074432314012005 -0.02507927754338906 0.053019082840869744 0.019466964514368426 -0.023047927989316944 -0.049951911368208222 -0.067619768951316231 0.05973820755345699 0.28019929361516344 -0.27948882908384981 0.33844071220332705 -0.26393316568650566 0.2008002773280585 -0.12463532770838705 -0.19016134628210374 -0.17461249613760355 0.012520253036271422 0.0051573105257187767 0.16034270750940943 -0.22445501331453674 0.005528217598826525 -0.11982478558330831 0.052499038746439512 -0.071642525794450448 0.23366617438839249;0.15428136951049737 -0.32642698676352411 -0.14383561496708894 0.064925886409682734 -0.2394084532918089 -0.24896745570781728 -0.19969089091210879 -0.090936205495250097 -0.16498440411145701 0.084748219465538455 0.22723991850601216 -0.07060509923232304 0.1888514822806637 -0.21433552562258604 0.18863894650999732 0.11058856897091537 0.21096876247817073 0.29537268954695695 -0.084155458288543927 -0.058993111079701517 0.019394138816462184 -0.085232330085736427 -0.31008294034422573 -0.30215406790774857 0.29415826741030598 0.061829127043312747 0.12936951716313574 0.029287457758775184 0.044126022979383811 -0.13497339095588928 -0.016343765612550954 -0.15995336175357125 0.17887584552075603 0.17516378440773331 -0.02169086875143595 0.18341704444009693 -0.040710756836502389 -0.31670599569188279 -0.11199132529357474 -0.14495041570604469 -0.21725274159792107 0.20197423980789964 -0.16785814508348143 0.17643351400416926 0.067426598476289429 0.2759396519107134 0.17831087381389735 -0.15708522106543563 -0.040726054118412063 -0.20377690266326118 0.11365142989971823 0.2205212264826778 -0.13767109604541036 0.26910476431861491 -0.10480309462625854 -0.16192311223622127 -0.10093370752645787 0.22051882122708985 -0.13412958325884664 -0.20325172013173409 -0.0017156024354472617 -0.20895962209051716 -0.13071034549997176 -0.059882641470970902 0.27896936823505486 0.18334263839044113 -0.10422753245810767 -0.20898907685325999 -0.15724831124283853 0.032319974914899054 -0.010311868643986394 -0.17356872838744611 -0.2196243291672976 0.074459650257380064 -0.21623000074161927 -0.057885146454799516 0.25093052306536845 0.18624311860450499 -0.018062789207888653 -0.053889534545280511 -0.2145579925389704 -0.073084440093440617 0.20480453292606574 -0.13165439710760526 0.030569606303003188;0.26760269239205026 0.037102415638582506 -0.0091434177665117248 -0.21708527143896569 0.16334954556995188 0.18500139648694741 -0.29296556195869866 -0.03440197197176606 0.21460244781327378 -0.09380206746431298 0.1590759825156049 -0.14590003484783481 0.0095130865307179249 0.12959930185983304 -0.23718420721630759 0.11514472693618587 -0.17265134308292823 0.18459920296097806 -0.21372979454577268 -0.046027340919820761 0.013086274491904894 0.078007459176611643 0.25507157521800983 0.14831708575526303 -0.092472514920272225 -0.094914262809660935 0.046585481504590194 -0.14183185699630663 0.00738760202768661 -0.16209173043369193 -0.028770236633404979 0.14266174438669393 -0.1277917633135402 -0.17962737497427414 -0.25574509428816433 -0.19359157210614672 -0.23555766537207018 0.22560103160807921 0.21907116714072009 0.051771106145014234 -0.036415447839892451 -0.087608844055312884 -0.19166243358747503 0.039084735956820701 -0.12034221607394145 -0.089032904864204954 0.11700299056161571 -0.25197697006990966 0.11036606264787843 0.086764536718641927 0.024684593263044993 -0.18938162453063895 -0.17654291560256161 -0.077860293860010255 -0.21022656187661518 -0.020460562133088361 0.27735717556069561 0.26089995224750584 -0.045477621659089487 -0.027321713120857516 0.14417271758546207 0.1948165823495403 -0.18424225704857067 -0.23579121089600785 0.22789626329105597 0.12930457465354425 -0.2141509847261315 -0.25878938550462993 -0.1548452828874668 0.16648661019368208 0.1909829925869693 0.29261979276984929 0.079792710053651794 0.22482922201300301 -0.10418567069564313 -6.2321928325824796e-06 -0.14886757106743106 0.14247975440949773 -0.11046026955168298 0.061533884416099596 0.072096785918102202 -0.086455983005962966 0.15585589683503773 -0.099254988496185248 -0.19817166781330778;0.081096698475402212 -0.049026585826670854 -0.15370368837181209 0.063041668012369975 0.36160110377385335 -0.054630430714211281 0.12906810062693053 0.18385005280713618 0.17753695518019372 0.018522878909019241 0.10526530586986665 0.013069479071623154 0.0081323786898534652 0.32609507574396623 -0.20284736526599462 -0.11749866614868731 -0.058017562631919262 0.23211237777889904 0.17694353563682275 -0.11392509787572641 -0.043118729253461878 -0.06539092548390403 0.21198051543034588 0.42156468493271509 0.038441201783800602 -0.16242651322704338 -0.0057641341515039662 0.26282407527493556 -0.054905780041492623 0.24279696323895511 0.099503035947765328 -0.079878130764921826 -0.15552674641774181 -0.095079480896100049 -0.25049982392066539 0.15205772155466188 -0.040167181451768737 -0.17072438870908832 -0.081235461814602269 -0.29426027981249514 0.0054030839457130438 -0.1768628745539032 0.16184696807311735 -0.063008918591537774 -0.02882793350902476 0.0019963682862838544 0.17123940872709528 -0.24971770687236444 0.15055805662553659 0.11781452007724859 0.30960919392873781 0.074591824931428297 -0.15256840779885933 -0.028910096857308547 -0.20240036896998093 0.18172511908503183 0.077011444346755123 -0.24345822123630353 -0.15903637585366309 0.14378588182226484 -0.3068688471537156 -0.28748672444794177 0.21114533305243743 -0.23656348234901001 -0.026286020750582912 0.22773108567365147 0.033152162856057078 0.22032964431923888 0.014116648955639429 0.17827652704294622 0.19450943309022192 0.053502871984047837 -0.0625799364831882 -0.28066584650399928 0.041076582124507981 -0.18092146429705558 -0.20240688747803479 0.20279539578715605 -0.21725236226674557 0.26306838932657101 0.08456315300732882 0.23475178813560205 0.050904885271852843 -0.075571973080237873 0.35422555085850016;0.040025679747781082 -0.24483849632467974 0.17308345629048422 -0.032777376053912642 0.019366772988003236 -0.034082654177243578 -0.017765047581324515 -0.22019604388983244 0.29599908392037932 -0.20450612423743625 0.25387465149356048 -0.26961158111947864 -0.13119373272929877 0.17207343347303361 0.068471859276675609 0.093556430289227485 0.13128027316123533 -0.075679173932918745 -0.16438144230564702 -0.061533465464848947 0.25163913137393507 -0.18056985766672573 0.22908148696844619 -0.25672573748024741 -0.084491046052450017 0.14190650787891246 -0.041481539900773266 -0.081126733686333857 -0.2390409841586412 0.084968193620290844 -0.13741492242919692 0.25948179060706911 -0.067376917941425168 0.23801505822977104 0.279227286101221 -0.20944962212150287 0.18040905849223315 -0.10065355064488697 0.1282956970945347 -0.19130365326856613 0.19088960696740001 0.2627303537836555 -0.063128670355252672 -0.25502340234536097 -0.099358703276319474 -0.023614283905502183 -0.17397384519992071 0.12353331464216935 -0.22588168218948138 0.070318765413546827 -0.13907769745369314 -0.1783290775625547 -0.027881101352051397 0.064490912420016852 0.012871221950621506 0.17602625996066132 -0.21419591142074124 -0.023080925839316528 -0.25177353425723675 0.22320340468079752 -0.16465605931347493 0.014326788136681635 -0.083726024451925452 0.10225924058539115 0.13652855990728222 0.19969632806364088 0.1863827646493188 -0.0043382193602319501 -0.15080525931956024 -0.036574645867035398 -0.12747931119875291 -0.031202334563779983 0.065397455644440688 0.023230015771512093 -0.13044933561040378 0.13864724985083673 0.012765998339768818 0.11055507334073034 0.093994281409401678 0.18432375737911733 0.19307504365421643 0.15460209058514937 -0.11171387058270936 0.2508690756982962 -0.195546688872898;0.062909747405721694 0.18294450352507677 0.23123858646797577 0.10835194505120534 0.071697999897513895 0.0088367639536188463 -0.10754509544692062 -0.014736657238641801 -0.23210663895151395 -0.22442940165584122 0.063391327692218086 0.047838059323447507 -0.061195439646586393 0.20464814879746562 0.0499215107724671 0.090202294011887951 0.2045717011818021 0.30160262155921519 0.15596296541851271 -0.16529727645735148 -0.24219986423429274 0.11203508622323261 0.13854484196417058 0.013784814772808112 -0.29850550911718593 -0.14192823883023842 0.23961872321086294 -0.0095521622824535374 0.15457496321085126 -0.15096340627000893 -0.098850776330389717 0.29904456693371945 -0.368233655032776 -0.10063862097377027 -0.12839333209688022 -0.091736023796976679 -0.17434775104885147 0.17740163874074902 0.13684557808753053 -0.023099035798818862 -0.028448514673120522 0.074873058943076873 -0.24453106735908536 0.20199533082978571 0.08027655140173183 0.027664138719836993 0.014497508875385616 0.18096649415566612 0.26599977401461999 0.050799977276734097 0.27208463200572908 -0.18851866960936245 0.060955329791395514 -0.19793353594104554 -0.025214958612472679 -0.24226639312355067 -0.071381439879308728 -0.23197214721671056 0.098174160750559625 -0.16819538124827713 0.038132147754449959 -0.14487045283642438 0.12976796103279561 0.015068060667999678 0.065801255748261581 0.0020041917811592837 -0.1525101911175713 -0.25251369892384234 0.12875808537358374 -0.2540830836471823 0.22367105332811804 0.18084781072265957 0.1443786276492888 -0.16796688194152293 -0.0027622116094174901 -0.17899602446916574 -0.15698668029025506 0.13818564053541352 0.13781744792506254 -0.27915347468227697 -0.17446026853116661 -0.048071498740062342 0.33359012426341345 -0.23352494076588429 0.23339189226193796;-0.26092714518048166 0.22266504233819812 -0.0069658599595188633 -0.19004283263459434 0.11447674785086197 -0.015287114268526745 0.011449615728814977 -0.16060104858255456 0.030551019475155209 -0.1554538703419599 0.16981942996266147 0.29801406501838695 0.061688566127367027 0.27579086614345927 0.22091744606102864 0.21411338535725788 -0.079463859771116543 0.1497838409969936 0.17461359624516748 -0.13224954081121851 0.057554402835070281 0.20969069516496452 0.027966520150966668 0.22323463555659062 0.22955436377984786 -0.29344104946778815 -0.25344929437921898 0.13870244002826621 0.031203334384431167 0.16573411015051062 0.064553077021855795 0.19503081346805676 -0.19303699499608301 0.091820679361291305 -0.051727971692132078 -0.22071474666401222 0.22416944354035115 -0.098808338073921725 -0.091475269265880135 0.15935453154167714 -0.18151399697246645 -0.20588277803376426 0.11210436832407866 0.21016847552754531 -0.21290791356173644 0.26133544876507336 -0.16579871340752012 -0.08477130797002122 -0.17699993884364182 0.13077173501582939 -0.22608001851684881 -0.18877074240596609 -0.066467725762465055 0.21036664813386005 0.1715133853366306 -0.099883280499476562 0.10626263557318108 -0.098182333669481814 0.096082607417608781 -0.060871812110227755 -0.16708804067650726 -0.20693196333953648 -0.04112012794143477 0.067468716925999275 0.066018137011421243 -0.19108162857482633 -0.11815211827282693 0.022287323169659479 -0.061074941026955161 0.19399759551928439 -0.038940063379739695 -0.077682141735712515 -0.12495169893145519 0.13910861086803486 -0.030657355705387725 0.2528244708844703 -0.074063152005036187 0.29129281424574988 -0.12956031139551949 0.16642728759774894 0.18112610002949983 -0.068467541480082938 0.11983051169954305 0.16187864907960167 0.19838791905283679;-0.27503116854278792 -0.24981029285157372 -0.18722657883443861 -0.35451558735221539 -0.11341936590296997 0.18002306001071869 -0.049763154889324687 -0.14671585393415562 0.017414419924949416 -0.19194858897571665 0.17795013000871279 -0.002563136477004368 0.081680257701205045 0.20891773800969071 -0.16657543198791552 -0.35823692262172729 0.0028514645229514458 0.15602567657680033 0.085635915183917388 -0.096782602700394529 -0.1056683122847219 -0.24153215875107337 -0.27602538760121254 -0.099804286719514218 0.42013020501455101 -0.060161822496458628 -0.23637516594023505 0.079125874641197635 0.14501447575766022 0.19304511525461118 0.12606572290259221 -0.21658229464322964 -0.093215088934019211 0.068961420131270129 -0.10707619169530333 -0.13250663379719005 -0.097179164149527847 0.15340054174008866 -0.11010070048342767 -0.038653984638312287 -0.0098221586962184398 -0.14764604019209415 0.014697058176486213 0.050448310073672453 0.026937466730944791 0.18103115000670345 0.070357945326588442 0.2460267955431466 -0.31018596897045886 -0.12122932815807003 -0.23203785658042692 0.19496661139405311 0.24389688343632798 0.062502521372555797 -0.093451569198050213 0.26422690269585469 0.051303286891478318 -0.25247600198790132 0.35368698716352104 0.099366123186751615 -0.11958535596198093 -0.07946621095392789 -0.19873588575112033 -0.33038139784847409 0.072338366766657711 0.099821189366875063 -0.26709178458647886 -0.085226019044548754 -0.082984276061438586 0.19756158687550265 -0.06876120377043822 0.01026811431296721 -0.11155534373093196 0.091313741427261175 0.25471765841494942 -0.04996056480671951 0.18290602893092486 -0.027061455542278956 -0.10670201578466962 -0.19517954482342356 -0.25055814728919701 0.029700258660029514 0.21158511865352381 0.0017774801879859607 -0.25835512981957004;0.089828302011761868 0.15150992556369833 0.069438668261351422 -0.010866071080453465 0.3717024147163368 0.029706795067237245 -0.13366503152868389 -0.2443634511918884 0.077297532251735329 0.11989133584786546 -0.080468335455476311 -0.023062717566764892 0.040980650494018965 0.31448720857430956 -0.22122131096154687 -0.042500814775945972 -0.22876154773168836 0.097609518597088968 0.20900458990293513 -0.019183615936441044 0.17344464014660455 -0.12427847003366325 -0.055693134865014038 -0.027176959431901342 -0.30781674634902156 0.19768061813425744 0.23758937644124126 0.071989980904469439 -0.24550041610619897 0.15537842542971314 -0.031639126751104273 -0.13085704947927279 -0.22722403863735391 0.030018250822123588 -0.19571740341702146 0.17760235307970704 -0.10369692244644287 0.10920105964599972 -0.021928869351804658 -0.22366934930107707 0.34830871989362888 -0.077565562854681094 0.14440339159938542 -0.050622465251463078 0.061797737798705767 0.25477841680991548 0.25690801041389683 0.25666973979560781 0.11141095951740068 -0.10037737891365767 0.11526610506733719 -0.19076125530496832 -0.13200306376817242 -0.044000836567414187 -0.12131066476114769 0.097612456820527188 -0.15771090528598725 0.063452932310863144 0.2238645057529019 -0.1185562698567542 0.2587305759900862 0.26701940324521373 -0.16448126212942638 0.014488593998952904 -0.08593788019789006 0.047372149725261742 -0.27610801255036821 -0.031460198227876386 -0.16869438675560872 0.11230956061407359 -0.021840465764546558 0.26953956474339508 -0.066369066565876059 -0.15192158163798766 0.19397412499478414 -0.08746136805707827 -0.085614029936017536 -0.40358678060546149 -0.092057515103432241 0.39134079142586486 -0.39115836392478731 0.27598577797712781 0.19717115595145757 -0.1942414947505248 0.025972623985075105;0.15557176683477184 -0.039868551905882316 -0.16723395463646004 0.2048260941885697 -0.026747874669031318 0.043437468138182202 0.13813914554698042 0.16863418738965227 0.1842683175414728 -0.25275063869957715 0.13002858320890079 0.10590994404936944 0.010239750345154477 -0.11407360052310127 0.11691136535305137 0.19492787926771951 -0.050759616483015996 0.076506305471542344 0.16018159527915643 0.10278187156443599 -0.29963329471911937 0.056713317443212605 -0.088472267612687047 -0.41440638771981203 0.438854238950175 0.28286297935977611 0.05756003351822099 -0.011747887358245217 0.027800927739116806 -0.20447535854352708 -0.13454676216665737 -0.027984261858932154 0.19507407399342308 0.065209377506290397 -0.045766563565486647 0.11996525516098558 -0.0045081512776797648 -0.22361297633461902 0.14038633078687582 -0.13712183300060349 -0.028285069910577072 -0.27539088884890567 -0.18089654662805785 -0.18297794780524221 0.081317712369567877 -0.20565107051960269 -0.29621520005006563 -0.21442712354098381 -0.073360623345231718 -0.19241520970629544 -0.084706799505311639 0.073219893678703518 0.18868230101417582 0.1187885071352585 0.027167670112392489 0.11132417312353617 0.11154487563953622 -0.039951663996845778 0.0054244904631952544 0.10310161113839054 0.23943715045457775 0.073189103141581932 0.15739459830670649 0.18988246727446431 0.024120178589830708 -0.038687872359884808 0.09049144734254741 -0.23950394558210308 -0.20793517979512743 0.27076812824706842 0.21561358187108065 -0.0094515715473759768 0.18511448525000601 -0.15246201895152287 0.2750312124941568 -0.067301567625171768 0.30807087439403913 -0.14446147727643655 0.24422048527287868 -0.24941183362741373 -0.10045065543078449 0.021538739334568333 0.17109552651338866 0.15315899972527522 0.21518789103779259;0.035806190606998606 -0.037012905197973511 -0.10472130865321995 0.097760568402379844 0.26130872959228735 -0.032506521719567923 -0.22650089944159116 0.18233659914346056 0.048700282449285329 -0.032791556914070957 0.077471625460131338 0.15758041443117082 0.062809651864320484 0.11302569035317846 -0.097955011124516878 0.21177599270667563 0.023425136511312679 -0.06630160138054858 0.024096863503017953 0.13593565741285094 0.26764263992717074 0.080370353180659437 0.26044734139028325 0.14432530405579883 -0.25722426579040281 0.028110800862949561 -0.12059569938329756 -0.069845115789648499 -0.06907794477665441 0.087864524080166637 -0.16493184534610694 0.26991695852850989 -0.15502602632583626 0.1880759432576172 0.26783087810215289 0.1080306132962689 -0.12035024910618521 0.021606705747323481 -0.28313634356002165 0.11106961320642889 -0.07367743040591071 0.26309277275486376 0.181029403488079 -0.20765388225570619 -0.017087024929692236 -0.20160895372152274 -0.11496028357746119 0.15538252868189936 -0.065590084776377885 0.25778213957585722 0.32258229794453724 -0.062725429252924514 -0.32068646122049244 0.18917268973143436 -0.24221195203543203 0.0012305493751653789 -0.23262101722503906 0.025353992833918738 0.090281868432387849 -0.18962797209029489 0.097161649858145946 0.22553741710876976 0.029562385107645642 0.050911966124766034 -0.082267734175918969 0.21068071434533772 0.079652622423591724 -0.12901905865776134 -0.065774972310341864 0.19344018438796215 -0.017415680071552621 -0.23315981847612316 0.26732196604835079 0.25084972920913978 0.21795450894027665 0.035346058653702481 0.182685310398916 0.20049935246983835 -0.18375854457000315 -0.099237758033802734 0.11080904213926306 -0.0040818910708670048 -0.43702061748388465 0.15661332892615806 -0.18054609367982338;0.052265039032515323 0.20089537186947146 -0.20788804043884829 0.26692591263546428 0.047154055609580067 -0.32070583013311382 -0.10312652501301536 0.26748772941218929 -0.13120422476927004 0.085246080440498057 -0.24553132342053727 -0.20817179332266358 -0.1623331345145424 -0.25096403162888503 0.070666505628911885 -0.029976303922079558 0.31645774842375818 0.094292950918287044 -0.011070439244835939 -0.08762016358384013 -0.017091494202498392 -0.087627430319005328 0.2138804301338465 0.0093486621453228429 0.14068222464708025 0.017198431617468594 0.13878069669050186 -0.30347890621855156 -0.11234373218055438 -0.036608046326602792 -0.12056365582146147 0.1476088086475621 0.077314283861671815 0.12439427803861913 0.040256050921831342 0.11352540300109257 0.22417504450008324 0.064496336235005794 0.020757201095761735 0.21201840961443022 0.21885609649670951 0.025532195741990754 0.14949291765845923 0.064016896887557406 -0.043450367892519694 0.12104109013739016 -0.016950769618922876 0.015116692942916607 0.23938840178647824 0.16219802822180909 0.1044464394245159 -0.20876939205721284 0.0079233437739549654 0.028777293835503766 0.20240685511749798 0.16965846492488257 -0.26444030216172232 0.21837025490421419 -0.25222173736815112 -0.10376449777693668 0.10609371161793513 0.20680707874523621 0.023365467682712839 0.081804974392101784 -0.15188596109329716 0.16476024119740718 -0.083909435167347737 -0.20133665571890208 -0.18085743656470316 0.25736663839949936 0.21385575324583686 -0.16288275998346982 -0.027689019884147192 0.2952207676232827 0.19863611036410994 0.23201034121173769 -0.12916891974981753 -0.31382741632893218 -0.035035887964007029 0.11672054708121642 -0.40240465052795255 0.045742881594861465 0.40657945196646073 0.22894011238343645 0.39187555285850095;0.084725270015466217 0.15990819759678582 0.28240384510534977 -0.17122480494801492 -0.090318850315038626 0.25127071760121217 0.25585150923266264 0.28788377944658528 0.04625029025765718 0.18637803778137307 -0.25797237468315198 0.32823379701472516 -0.14964629057108469 -0.070037497906016682 -0.097297208406823252 -0.06286219595261186 -0.15048400341529281 -0.192157965504266 0.11986871630615642 0.026064677861925577 -0.22235702618901648 -0.17973320707595472 0.21630359627411186 0.10405763591806536 -0.21305404052139618 -0.056430792130088704 0.25384978037407208 0.26974357093473073 -0.070626688506907342 0.11294370129835957 -0.0039249350870836164 -0.0061854479177907516 -0.22520223730106761 -0.19982706703009789 0.21803671905941893 0.21648745195593669 -0.087437929084786384 0.26022379836601106 0.16584369919990888 0.046567564947085714 0.27355784740851535 0.14169756962390642 -0.31289463671082524 -0.14610640138497794 0.033343967221752042 0.13942885037140373 0.064371656044456591 0.14730358958235576 0.23238058530088532 0.060221959285765861 -0.13679114399723191 0.23345564406695077 0.1620390438802996 -0.19143609727371153 -0.048431815905827645 0.1331890470869152 0.20244834475592743 0.089852066472648526 0.22999186896353971 -0.0028698938536764647 0.018978883121148156 -0.14983917432115793 -0.16196804656771213 0.026619176248256875 -0.13750801096428705 -0.032659073505088204 -0.11470164185656906 -0.13476807699105103 0.24039642672428524 -0.27190255857700807 -0.018037456678432762 0.12897408531728044 -0.066443142736453853 -0.02252209711236923 0.019052448994156961 0.065425474800225661 -0.25072373058073744 0.16806538645865321 0.0045518451579910375 0.051636361182711157 -0.080931726926859682 0.23982737972534859 -0.30803574933082256 0.31026033692265664 -0.20053414057179417;0.073713549601359479 0.15952596865292182 -0.10138978982614155 -0.023348574472414632 0.1171611261453999 -0.14880425072721593 -0.27639539879726854 -0.043054379849627761 -0.048781290820270211 -0.16220981362939033 0.16914152234315533 0.018016695133050799 0.16361892072754025 0.067355843723628073 0.047301987204536773 0.22401587569985576 0.25861235519476589 -0.16401592858360306 0.24091852267470118 0.11215430760481987 0.17975951197231183 -0.036207348889955963 0.27600167212870519 -0.17463274794169323 -0.30738047535776214 0.039700319946543362 -0.023421039492326157 0.17152369411928006 0.23812389578762605 -0.097221842982489343 0.21293609410418721 0.062829354817562771 -0.1103908997898972 -0.037847168646019419 -0.1039955498477315 -0.20338108635720681 -0.2524082887199654 0.006469759113552331 -0.048632023220652305 -0.00046034122168913186 -0.053697170985268369 -0.099187520816855196 -0.15612644947912457 -0.054910882580829927 -0.01366636356391172 -0.129062877679018 0.21324191175337831 0.014858536882502618 -0.18371568992369708 -0.12394013439517745 0.10845210634120676 0.078921812279117598 0.10737294277227466 0.22132688698391068 -0.17988439757854069 0.26503689336792879 -0.1517709461090424 0.26899621580219213 0.25194184515030121 -0.13129366315989149 -0.25367249242532014 -0.17309840388240644 -0.060209173331618723 -0.18952069433402569 -0.10483592086049072 0.24055882615433061 0.0056737655184682309 -0.13256661825363733 0.19746137715134809 -0.15317476243340006 0.12777006680718953 -0.24045936120126232 0.035951069098279373 -0.2365789075262287 0.071487414014780482 0.058424030678162563 0.23797271047463744 0.18401737140513483 0.039716702508272701 -0.10923173933650718 0.14523791929671379 -0.09084544255831388 0.070543609690504674 -0.30174475174729215 -0.28780551097703949;-0.23703906179928644 0.17161742830119162 0.20250495147176609 0.28383887286447668 -0.21629577922442303 -0.15068596097664727 -0.14527269749695881 -0.018940831590685787 0.0043695425604441639 0.15773412572333048 -0.23751381934210039 -0.15908548396638822 0.15743862291519514 0.031316702707564946 0.11249407694144645 -0.036492264759466944 -0.30161983985267976 -0.016344570807363588 0.2959925011829741 0.084015228511533466 0.082098081951417476 0.035951321500948326 -0.1626096993690074 0.23012871818108785 0.075901771787256544 0.0084774437341129383 -0.24410493567206329 0.32450483057039825 -0.098758982392907202 0.25776315683775275 0.041889722128776868 -0.049276957281101076 -0.088511129369184663 -0.143074970279983 -0.22959806168148322 -0.04352915947769332 -0.23608228684789209 0.13913027110169918 -0.10581675252829113 -0.029639699374569971 0.19301069574600899 0.036004537074703913 -0.32896768074728533 0.17060076028043988 -0.017577421929272804 0.15747737290457473 -0.10436149164627309 -0.17188693032828731 -0.22965078739141237 0.16320722513069144 -0.13312427380928488 0.068557779262542376 0.12938254267344229 0.18069993056216246 -0.046673601234247138 0.13863730919934661 -0.068005944303464128 -0.11146509700409431 0.093550252651797214 -0.024363189328710039 0.01109305777918464 -0.045996393304405019 -0.028725262657676214 -0.23893528920438709 0.32968605182478933 0.11707279786380137 0.027144974648155337 -0.01138268368902658 0.2309562657960772 -0.1626362056918996 -0.22554566860553471 0.19566977183864179 0.04881739128012922 -0.16587844236455215 -0.04777057332975948 -0.003311313939612166 -0.04375125265376157 -0.2031779314295033 0.17628835199315357 0.082020140222772944 -0.059403636963859065 0.30369199448260514 -0.17181930037487256 0.13271449078447448 0.21792337835546285;-0.25457267630317076 0.14540465653520765 0.13502112351799431 -0.27888389137767439 0.41758188772232319 -0.14070831277066975 0.240438688798228 -0.024900121336607607 -0.057660170159048806 -0.30034807981142575 -0.23975804281354149 0.0032804279890988226 0.11750130667227666 -0.049334507407952373 -0.019875791795601998 -0.12385385453613826 -0.23253986232783841 -0.20716846533145289 -0.078119105593277269 -0.044356223987752401 0.17423706542884229 -0.17297052523231909 0.18248900744949956 0.13589455097978137 -0.1755208660791534 -0.22419720840467228 -0.1977439267059749 -0.31385154290139955 -0.20415837206605278 -0.10993898080359719 -0.090259989074725377 0.041531168675752198 -0.25147275556534776 0.079345322540179161 -0.020618678992752777 0.086219276810056811 -0.23429554710356443 -0.12660285963475776 0.21493864817205066 0.049704702251080736 -0.22198127613245261 -0.21849940873377072 0.25581048645635407 0.086000665245748301 -0.17893981539858014 0.16998700188398305 0.043726944032056889 -0.30690230752725439 0.23040120690976426 0.12797602126316948 -0.21967557111030331 0.130387141720223 0.028026875420241324 -0.24021087873872804 0.028687961826549317 0.1374316420815786 0.090297235357689729 0.015757008539641237 0.1316146093429455 0.08457043301186358 0.22088590587419354 0.06726838384574596 0.10901231404943247 0.073235501885799317 0.081874783277168461 -0.010386675304313258 -0.14801254949763781 0.1550155741723237 0.14703509330051279 -0.18535936720334364 0.09496294461905988 -0.27005308654395244 0.16220213101837055 -0.027213637668189579 0.1845179510904327 0.023884815790978661 -0.0088343231389016383 -0.3172443910692303 -0.19870360222819977 0.10162681638569732 -0.21107644348263721 -0.019338173834382643 -0.10934589676839103 -0.14099392079054274 0.28513437747771064;-0.10336490831852722 -0.02325686832829827 -0.257188164475669 -0.014965558026287048 -0.017687435208007179 0.12735975876240044 0.012919722513053131 0.28626867590335886 -0.0031591462520538542 -0.22653729589971039 -0.27543044160810171 0.13843982688251763 -0.19910477725584871 -0.05623306282019374 -0.12136951136924691 -0.095254430564267772 -0.28929989069059425 0.098972891392749909 0.13168802968871479 0.24233660580993902 -0.14642098383550953 0.022713160097535993 -0.018910420790584741 -0.12734201816105764 -0.097945757130723496 -0.24584705551101782 0.027631443010030399 -0.20910486483911106 -0.1912149981445514 0.13626586878436547 0.096864023934708707 0.17595224236114518 -0.081530228728288412 -0.045686952328504594 -0.23732523560522181 -0.083508754679153183 0.055970670177633984 0.036261130880269415 0.23602507961529992 0.11367966766047949 0.07410915121956918 0.16357956896971007 0.082371602367031102 0.05523098346706154 -0.097203444824135649 0.20688816530203105 -0.12502123231073997 -0.21879966157856282 -0.17049446865134646 0.24760015687531259 0.15942341149935144 0.25644039931733603 0.2716382889582582 -0.29912771226594087 0.053264438714221825 0.23510098136350649 -0.24192187221001107 0.048039873570038714 0.19723870863874404 -0.11250885276090651 -0.019122602129638237 -0.021241959910974197 -0.097443716809243741 -0.26655170908414305 0.096044940649913993 -0.24398123807256572 -0.11334004890063104 -0.28142127882666579 0.16927617050563828 0.097877916085725422 0.27149229707541878 -0.19629942601909214 -0.066373224266813705 0.15325709061081391 -0.23536437803411073 -0.13019182175862357 0.042855889663453405 0.046741616475402634 0.10106869149428657 0.28086323496004528 -0.02964829465212402 -0.17593250457364565 -0.092917044957505149 -0.081406527936917217 0.035591190607856989;-0.27035360418434712 0.28420428842886247 -0.29675056139004985 0.027193662708430953 -0.088723460686821853 -0.015683187217705952 -0.2025796608558717 -0.26307941207420149 0.27931522627672656 0.1729433357753859 -0.096506702168502531 -0.0026141509092635655 -0.058796301653265409 0.0039427072957708914 -0.086413303715741949 -0.29531899770094783 -0.21184207814492623 -0.16910857502976992 -0.1166882437824235 -0.031002007507220271 0.22186272430093792 0.18405046759633598 0.23610209813688321 -0.21386669770511038 -0.18553403366193977 0.077188106263281694 -0.14215920447277497 -0.090778208662164156 -0.18206210614405824 -0.33242156392352479 -0.012921797216064955 -0.015428133437531666 -0.011983114865990987 0.073028590581783071 -0.26461964056220971 0.1019224876018673 -0.26013506192094582 -0.2057286303566791 0.14047356838871136 -0.22560250661980358 -0.16095857583813589 -0.040537680898396225 -0.25712697578563432 -0.089787110135133685 -0.0024882822418890249 0.14623544572678265 -0.19195563222679937 -0.088673389695006807 -0.067591867466761588 0.068856579271876023 -0.13714085545513671 0.20596052371289517 0.14630533323999675 -0.21756453081441068 -0.23474531991531114 -0.17762322484913187 -0.049267351070135759 -0.10286464919681254 0.24065088313543295 -0.036266522800438544 0.12607933799800081 -0.0004469427322282022 0.19639440175200892 0.020648200934408268 -0.20905742417140466 0.16428794618115064 -0.24905521284259621 0.083705714756594912 0.21559930434316815 0.14213822950874472 0.10982016186387082 0.22330659650587192 -0.080684228655628784 -0.094917373183229903 0.29185987846615685 -0.017231081979082793 -0.11829078883243568 0.14311283545559586 0.10493042352485427 -0.091753029285569748 0.086497147749758307 -0.071355615285700891 0.065572809113023142 0.08908566334802398 -0.20248543404928901;0.19605691141795503 -0.22125590869070633 0.24166385904263207 -0.013152112768544081 -0.02310344966038419 -0.067951103741369381 0.24043907874926682 -0.13812425107102921 -0.093810505035469241 -0.21076617689918878 -0.18192035629769437 -0.11407310278196857 -0.082955552949155437 -0.037483199351576353 -0.17377817841143264 -0.17179082836059612 -0.23051986156061655 -0.14955916023768503 -0.21535025134317431 0.10701859526962514 -0.082564490082791056 0.22216652067781673 0.0063086534457391626 0.013187289396069887 -0.21961382382066499 -0.1956864599925803 0.18367984308143123 0.29135942001157938 -0.20869955566386911 -0.1750698628359085 -0.040869821171604141 -0.014740180997840429 -0.02769518719398532 -0.1210466952197348 -0.044163374237012304 -0.10612222861288485 0.2044370333043144 0.24032243472598619 0.031818157641585201 0.066230141599458517 0.33606384189453342 -0.11215092404429387 0.068871564310072866 -0.213965041586098 0.2079227721261061 -0.17161864978269289 0.13147079080017093 0.13733594059244894 0.090446360567791401 0.18963818499029592 0.098015232236215194 -0.060738930178540713 -0.22124590451802567 0.18032578723595305 0.22323064154256997 0.23549314902457069 -0.050295259349989997 -0.13487837505126746 -0.1809204134353517 -0.2229402287415935 -0.33171683199517438 0.12901105421472572 -0.2145268952881195 0.20975841715066018 0.22767002169548625 -0.17174443030327616 0.30000784161127414 0.21842669099239559 -0.16272936778178193 -0.17482173449712779 0.083950159230080576 -0.18858875190741928 0.10550154155733193 0.18682624972302683 -0.030633489319881538 0.064306356216566801 -0.11943835139952634 0.13426080327622064 -0.20559659362770194 -0.12407401863440477 -0.054599364118257353 -0.25266635791572145 -0.1581083971456973 -0.096417623193620808 -0.0097675245523543962;-0.043179273688626438 0.13619331824254935 0.25962214986119364 0.12956069969858808 -0.11109517348596362 -0.10611318226788641 -0.11444929240935191 0.048246436215468085 0.10181735987164271 -0.14148215675596082 -0.22410751331971424 0.1771592758457384 0.30405507969605139 -0.00093300298110709319 0.092891599728613924 -0.14950374402807712 0.039571893773644333 -0.099631301653777551 -0.00064595890501086039 -0.1392919104161619 0.29655565990097471 -0.088939909644613124 0.031361816153469016 0.06220210953342549 0.36776954270230944 -0.045547885500152707 0.05294470435625493 -0.18046299345813965 -0.26828000862313939 0.013424111500497753 0.040652941455518218 -0.011459502855907843 -0.076484271261196821 0.26128199870404484 0.034815983350970442 0.25365022474832616 -0.20980539758126077 0.28796924338731722 -0.0097939172931408268 -0.13477846798173571 -0.23998619046525257 -0.23177707707647274 0.16211326110703797 0.25738348773254188 0.18368337238579138 0.079747972388243479 -0.13121762541057305 0.046574589411374358 0.1645291033256728 -0.23866869389433196 -0.20997758776062778 -0.10181259058160046 -0.088067372157172863 0.21618175269531026 0.13186583514801267 0.076731206207883915 0.16450200540574497 0.019936521627819906 0.1537939765154433 0.12428265962332415 -0.13509752009468173 0.25767067671864008 0.25045750095897074 0.13204562697119321 0.14803958405134832 -0.051957867783991502 0.0025570193557808854 -0.23448127210815911 0.21456967025174459 0.031251460449719777 0.041561419039687401 0.14083709243423148 0.14434877606018878 -0.16305525003594876 -0.058731973625626648 0.15659962657143389 -0.12282302821026139 -0.099977652788343752 -0.14721971557988936 -0.078015879141190181 0.022022787971565927 -0.2099261080882594 0.17372171067684036 -0.035240395432240779 0.075346948338117531;0.1749821937338841 0.21802490658265133 0.20125339551613056 -0.25354820136824546 0.0012007083322212089 0.27257856822600846 -0.065229631281439271 -0.085090623440208873 -0.13021020968858521 -0.20322300089569995 0.0017306946078273909 -0.25110164214072339 0.23989398240315421 -0.27407797115295657 0.063185361495482539 -0.21938589332310865 0.11636958868630805 -0.17875592051655792 0.0020032485172196603 0.26020132954470826 -0.23191058176817181 -0.1755903506627062 -0.17269853209649669 -0.4639439241468945 0.15989308080413411 0.22060020688511395 0.16410741793943168 -0.080111664183029924 -0.25580896183702689 -0.21916254707454536 -0.15888253284212411 0.1475583546985213 0.26818791520968466 -0.15530169684414771 0.067794305371281297 0.21034596967096983 -0.11658332531916579 -0.20663078040730679 0.19823924703671347 0.1070465314574776 -0.10220929627095077 0.099408936300289505 0.34390647111520345 0.1755540548415237 -0.10572977125696845 -0.089688519559533789 -0.19105046853725788 0.014163874579606465 0.018780203617083789 0.047688547224579179 -0.18225360665002724 0.0015046610838296906 -0.12192530039298755 -0.23472171583110701 -0.011574868400086025 0.076484708203335375 0.20139492451666344 0.25636038292509056 0.012890807979974019 0.064545962521794634 0.16108624259655094 -0.13525291102148673 0.10777229700058562 0.12881084335186424 -0.050884281826536017 0.12215770602152329 0.090718556568330652 0.07415237159408139 -0.11003423373005117 0.18085974018714732 0.24360015393237863 0.2250915420436819 -0.25638462351940283 0.15892935732551192 0.088767593962484154 -0.10067792105230471 -0.10490069942063736 -0.11005082373979679 0.021457231590560302 -0.15754274979558092 -0.251589344915784 0.094626146460340746 0.2416975762760934 -0.16619523041587778 0.24195389149733199;-0.090713139514372002 -0.27819271552358138 -0.2737011585943917 -0.24026199934363521 0.1412926309904016 0.27601667704926275 0.076909307223817516 -0.25728442239138832 0.13830417108386059 0.28986438811960302 0.27898196022254657 0.13149335766170758 0.2944270816736213 -0.21580342481698703 -0.089363674506148433 -0.045153272563159187 0.31540356762495741 -0.28119018497181325 -0.20927466998899941 0.1519086828904386 -0.2163538741459044 0.18951411893426837 -0.092958676290853276 0.11995098854341099 0.21851140944499492 0.26873426191993632 -0.018485339353144378 0.11249748054349171 0.012155818267824102 0.020021908117981373 0.18268354771748127 -0.0078836742995471616 0.047734884977482649 0.16483518573183586 0.007734545630997262 -0.02474318817775234 -0.13684540768302028 -0.169186933295144 -0.17549953744564459 0.24824100126939586 -0.014510121839509955 0.29715342477679163 0.22675584329355211 0.25733194442895241 -0.28611823578914769 0.15254613627286395 0.16476293489255514 0.26832794812382305 0.15147080766138826 0.15863550760355011 -0.10211152143565141 0.13754791897533281 0.038725684403377862 -0.11622966253213846 0.1052844897366005 0.019888057216440179 -0.01696082404604763 0.094205578257153422 0.3730243631778476 0.0094028165876307752 -0.10000117759278429 0.024742174170523597 -0.0018232687932124821 0.21697976153462828 -0.16665680572959995 -0.1480672051887077 -0.10737262206707045 -0.023730231001139725 -0.16369910693916284 -0.11683047601197971 -0.17693387956837162 -0.29557048794602853 0.1454581095459189 -0.26897268288707815 -0.075382364024906806 -0.20722404770385516 0.18535061354640595 0.18110423267127035 -0.16029689093571006 0.0097172623658422566 0.30099131438237237 0.19257789375777648 -0.29063756539263769 0.1094144024098519 -0.050665621461547947;0.19397231203010773 -0.21292873234263954 0.18077751508624323 0.27438909288609897 0.33951101958230717 0.2639555239921097 0.01277553589846382 -0.075672106927390792 -0.30323086165310065 -0.20680349610552845 0.27934329070452968 0.059105992243398769 0.059564292123203424 0.20209375626879036 -0.012940771993645316 0.17198166859360028 -0.075696644951259842 -0.18143151696925433 0.13550523997988501 -0.032633590970191084 0.07998598732930913 -0.0010629443304858079 0.25550402020629914 0.41552528668195871 -0.25934483246205953 0.030730845213426655 0.23761748545483113 -0.10452015769997654 -0.25694301598224151 -0.16644717388788491 -0.13725121533339693 -0.035520130532404333 -0.056973286381785337 0.27178859487431678 0.14362795941691828 -0.15824629761268186 0.29538821362708473 0.019898647495709691 0.051414252962092011 -0.036088582448913817 -0.15828426023110154 -0.023583766415839012 -0.24070024883722099 -0.063374828476768424 0.020034479671031991 0.16519963674548738 -0.26626451249630179 0.015980239303524189 0.25284538557680658 0.098981207251234979 0.25767291402067566 -0.19216133184188372 0.063076284082608111 -0.2026625655514642 0.13528720776626213 0.0094872429846712212 -0.29355435767894161 0.11674895543650887 -0.064301495186957922 -0.079324234385414014 -0.083249951159443281 0.14166222045174273 -0.056816512249111592 -0.017863583849328808 -0.13377845350598122 -0.20558878497779523 0.15198213681520314 -0.3119345624204734 0.0024511335397308306 -0.13777216685014546 0.036913547534500407 0.14302078230485435 -0.041015802158454268 -0.067589493364908229 0.042581865397650534 0.18502125732521399 0.15786187361224477 -0.13965074485934167 0.031756512145614806 -0.0024624954846157229 0.14879750950928555 0.14996277159803725 0.066472918656122357 -0.052874449570341875 0.24727297990114711;-0.18370896884153776 0.18658920352972627 -0.23233549030700784 -0.34498848448160091 -0.10970294501176653 0.22567932437915866 -0.032183091795380328 -0.12178467575326994 0.30438196857054201 -0.21030933109411598 -0.13860196341422781 -0.31834015396214854 0.14539957003697995 0.19624709160897263 -0.039969464923175942 -0.071156108313515973 0.22332750875922885 -0.072347218804704752 -0.12115653960303312 0.14744381873251766 0.17752378197781626 -0.11399455791918524 -0.15709728585510299 -0.01400234642748046 -0.24882509135740133 -0.066773736296416322 0.25833515742686941 0.051715977408298294 -0.040515387967496236 -0.013862970447310701 0.15708692809622671 0.1783958482219673 0.13139821233814994 0.017582821230852783 -0.17672939845207397 -0.17671264374192175 -0.14502683342152897 -0.025326516933235347 -0.092414496749646843 -0.12209110908074552 -0.12408541084712828 -0.078559045917005119 0.24747832105712317 -0.075111416807487841 -0.033599958216927614 -0.16142598863499186 0.098004196616073389 0.052848872002416697 -0.22544240282886363 -0.26687457929849706 -0.039615202941460634 0.068041625204916731 -0.015864291215072657 -0.25890525735252479 0.070976781883425002 0.15205921256426655 -0.1817366036429453 0.10155582465932067 -0.19523524081107987 -0.016271793666865819 -0.11620348807423141 -0.18231052539664214 0.01461615477207245 0.094282931033390388 -0.24687191950220966 0.15278392109140609 -0.048479232165465257 0.03767080909748198 0.008204491800238415 -0.28782882133461279 0.19185318463471362 0.22158722794921459 -0.1631800099829942 -0.0078837889425363902 0.17087909409409793 0.222517163796769 0.085044214490954825 0.16380854409345835 -0.23218098698593054 0.079922132699490486 -0.26442832157531049 0.067412394863274369 -0.25523933168488583 0.0040167923542841419 -0.29099940166021099;-0.05461800162819485 -0.016913972014151592 0.086009520405036871 -0.10416016775689864 0.13960353018733862 0.066330360022828855 0.30827746072606771 -0.017920494203535031 0.0055912059501142435 -0.066148125950923134 -0.12750515743570168 -0.10884592510902029 -0.28140379743734417 0.43806464596449263 -0.24581016342163955 -0.20242501672108193 -0.014685581269437083 0.1537724784155875 0.0015941064961559229 0.15128355258956547 -0.15937312824369504 -0.084724910515234286 -0.085769974085143391 -0.15606433061296615 -0.31565456463691904 -0.027485528202859068 0.097771267306844906 0.3002552412440142 -0.056458881906637677 0.11555977657735093 -0.042416460037012542 -0.072745112173493595 -0.15559086759859386 0.29426164363644419 -0.13028965219779079 0.1320379877984329 0.20597506382301761 -0.18335546771683961 0.19048675643724958 -0.0014765219379121071 0.28297285083908164 -0.1289969098104167 -0.037086594889790762 -0.13701373539576098 0.055143508234205961 0.19341540638164409 -0.03184568390102778 0.033571935968086102 -0.13663254260346522 -0.097217136312568481 0.04876605844182981 -0.026851963013046078 -0.33588371683093837 -0.14081627099701158 -0.12402493871653235 0.11407440015664767 -0.23926570740019529 -0.1095450228810128 -0.22260317785701339 -0.2003329965695011 -0.33888458172783226 0.20648436404449327 0.19560546266097326 0.21005340718347365 0.15587563127235968 -0.19721634126659798 0.084951776718807256 -0.14980967928677133 -0.12637210424618311 0.059243809470289469 0.1689872058221305 -0.14882011509335122 -0.14039394530062724 -0.0069471858396410856 0.24422328255409254 0.2631230971904554 -0.32198588420719448 0.081172700503892137 -0.10556722518060478 0.040653880792980004 0.25183699384098124 -0.014284590384822786 0.0015428667115617405 -0.09585768618519705 0.21009270895467477;0.27075753508548123 -0.19720900831685098 -0.1094957747500428 0.20233726612626973 -0.083909280299357181 -0.11062963485006345 -0.20728523828517612 -0.12299322974853349 -0.18347065518187858 -0.21603492438456362 0.30903518990453666 0.15748220115616532 -0.054150617409090954 -0.047075178195816705 -0.098357981936142036 -0.17782113002579378 0.24120928327942667 -0.10946607395372317 0.10585996874818228 -0.12357830610584707 0.086451990418550617 0.29992320671921069 -0.2623656584271834 -0.15720906974873319 0.22248571878721832 -0.33270593501972134 -0.06144754407818593 -0.16934499352615515 -0.093824838813595615 0.039418001703544349 0.15036194679364187 0.22583826043565391 -0.034722968150686359 -0.20752817526309125 -0.0011908578074860199 0.29479140424915473 0.20860341110685182 0.0069548593647114007 0.14658859504883198 0.035174134958679444 -0.11839745835520878 0.22235685559795906 -0.015144698089384675 0.12543914492447492 0.12838261125527053 0.075598975702076007 0.19701054696198253 0.3291366781132925 0.12304510799902021 -0.046251400306992277 0.12720980769782003 -0.044375232612306643 -0.14384023042749786 0.034192264951116796 0.13154891585981185 0.1183038709305187 0.11991976935436056 -0.19410933191402382 -0.16996345457434245 -0.23368555948570735 -0.013167979927945106 0.11901036408338206 0.11765922316910994 -0.24968977546742124 0.21160297974417611 -0.02871354104405139 0.35025094863817163 -0.13351922008090369 0.10900603014189611 0.13518452232396383 0.14413275409413465 -0.21960354879725552 -0.048852904344967245 -0.18743198622639684 -0.0066960593325403371 -0.03592814959079705 0.19465167953546353 0.058472528168400921 0.0066243273107373492 -0.10946475093135677 -0.070437762509979851 -0.046585042732496938 0.17803500316135268 -0.090085001324405778 0.11918107858003696;-0.059975782351668137 -0.10103577967360464 -0.26883112731871656 -0.0017770782146942627 0.34631248700373801 -0.17479993829746232 -0.15559766237954867 -0.13097150714970734 -0.0045644445553724138 0.070645117327260282 0.26216078753603445 -0.19014866682634815 -0.24198853389657585 -0.282277835578575 -0.090160317147834956 0.15975402492098328 0.058446838463556132 -0.21195342262475972 0.1956392665858139 0.051742552357339724 0.25364863474039223 -0.19371102135311247 -0.050874584260773209 0.21335233382324506 -0.27471491380438734 -0.23593764239642229 -0.012370008224136456 0.11787769301284387 -0.19987536309181747 -0.12507942298305275 -0.014497245785231448 0.18142814868200483 -0.030052223077473711 -0.16700495761808107 0.091312670425315282 -0.095754105463089212 -0.20256981946561808 0.25002305512758644 0.16898294996016539 -0.17868478937359869 0.0053054453186602247 -0.12301706441690449 -0.17930191722631986 0.18103399550051114 -0.19221087335175266 0.10243151129500125 0.18088960377409305 0.034089735429341989 -0.093185218134229961 0.15743244477601573 -0.019677245161956979 0.19119066828596309 -0.21871801368396693 -0.27897561184260911 -0.28572712189057264 0.13576929080390862 -0.013616907253813851 0.16555965404538048 0.085093989303559603 0.13971468247814778 -0.013308522484477212 -0.12419216323909248 0.084613303875373094 -0.048736857778781562 -0.069065619467096231 0.01656270289198487 -0.25082352379471123 -0.29693238079705131 -0.22883921015550704 -0.28769639018179438 -0.18584250285422677 0.0097251050632780091 0.2186784848220156 -0.25112450558950394 -0.12222232303697358 -0.097270222021013403 -0.20285690236158671 -0.031970868521494479 0.14020667436073223 -0.035261708070813129 -0.25801593498105579 0.15379192305204892 -0.2193408721367629 -0.25773115876628283 0.054738672048737169;-0.22791131583516896 0.17496951682975398 -0.0027376318911426943 0.04280588393527144 -0.18969269091259594 -0.034095221182909551 -0.1911838063171474 0.19677460064826247 -0.052252881754081763 -0.18302343024504542 0.29769292556581234 0.098777606347678695 0.090102859102685437 -0.17138295078351243 0.24561111310816547 -0.08421453284980128 0.21954835868279762 0.091076070131690945 -0.13831500278531006 0.2690291607729749 -0.10210206154224685 -0.074744294507021053 -0.079858710875508845 -0.14821791717293104 0.018969637376749237 -0.091821583896460668 0.2360349207053061 -0.20599089743505139 0.1796040638632348 -0.047813968514322902 -0.21585991443757099 0.13531692316900207 0.22938748217210594 0.16415721810723904 -0.144080557167239 0.011615221339853309 -0.012786067645851232 -0.064241324351241774 0.18360726102992589 0.095412264379400133 0.27833426554175122 0.090296604273944675 0.16039789831799631 -0.21236023355750705 0.079416951690524706 0.11832474729281584 0.10031637421831158 0.18717104551715777 0.010957179629378198 -0.13531336624059645 0.24438941604729625 0.2544828540672518 -0.11094725277940629 0.05819705846807096 0.24508206417223624 0.25012712430518641 -0.030700174704428724 -0.21781506966885866 -0.17743546196934848 -0.067585157594523951 0.044936588298567372 0.003831190654076673 0.099199108069735503 -0.23841359849009333 0.22598702730135672 -0.11621088576016099 0.018013580302143853 0.05666687715587209 -0.032162513035512715 -0.20266646987046388 0.1898691701770357 0.29275682376118489 0.043314419957901168 0.22085053706072014 -0.16681123827286282 0.27023876362110899 0.098896029071711522 -0.095484431020572955 -0.050284749975529182 0.092924223987677315 -0.28722884652340097 0.21010012323143221 0.15318635411745612 0.16655001292880867 -0.16382210300446196;0.23176092322317907 -0.077022389711227615 -0.30394039518685345 0.078451030034643127 0.23117664097960006 -0.053040417839849349 0.11179912189367874 -0.020289141390786941 0.18780071960775663 0.20071730795059892 0.050104138808164861 -0.27197548349251366 -0.0466866153410148 -0.044237539268106793 -0.15873766716556942 0.03853551676397677 -0.054272779120906216 -0.26761194501957869 0.26703388283526475 -0.034954870178488077 -0.11052037886156951 0.10565021443037866 -0.13573348533376134 -0.36111314225917185 0.39968207264286498 0.19852457376843718 -0.088035328814528385 -0.11892192212594037 -0.35713878193401899 -0.0087263415015510267 -0.096814954238250553 -0.020105916357931537 0.11342289281353998 -0.28444473722351382 0.11759014227970538 0.0013739378796173859 -0.026669728450327161 0.0012055922740817444 -0.032145650166831033 -0.10523342505239247 -0.0023336718203418073 0.14830907402277929 0.079089354864445752 0.16617332690912304 0.17488257705712446 0.20121846765523027 0.020260849881913547 -0.11675786163496805 0.01307921523383818 -0.0086152412729170787 0.088051112983610971 0.1072303193225442 0.067305999210335088 -0.076375835164402758 -0.19285204478820059 -0.22869240153260625 -0.15159901325856137 -0.14734632323370858 0.3708427146402048 0.050472701096380482 -0.18114468133348693 -0.11531607385538083 0.26992981200853011 0.075213526900221678 0.043186110404808298 0.27636470570004773 -0.30283714261780409 0.13997910832821103 0.19715423584631842 0.047051916451986517 0.032811549935806393 -0.12513447498754135 0.29166316580612039 0.13686147051035782 0.038754354742358409 0.32950190708114935 0.1197172570411511 0.035416852699520773 -0.016590189858539117 0.29836060470073694 -0.15436909466897239 0.16091339818618494 0.31933253437019582 -0.093732398903864395 -0.38637768273046508;-0.21513767272723286 0.10151120637814638 -0.23776512031770614 0.15772710069090598 -0.16430446129001783 -0.25512206973515855 0.38305338729686988 -0.16400601105766882 0.02019185235079805 -0.17627174816716373 0.024947525748885049 -0.26176368793859311 0.049202658848687818 -0.16421017188512937 -0.14559995861512384 -0.096169266664822825 -0.020405674993296319 -0.098138971660912816 0.00057163806422120319 0.10900316516382443 -0.15293537766676021 0.011758167883498283 -0.40843697918307703 0.17973919675704514 0.10222045872582794 -0.16114209122524267 -0.023746022160314163 0.073591191922046079 0.21899659703345623 -0.096542109368146625 -0.32561579854266132 0.007164364316835729 -0.040193722774892623 -0.27276987966219596 0.063908300713520716 0.17830871671639675 -0.056966185834719463 0.18447732906493797 -0.02710885471041391 0.15485606463014462 -0.33951371640983813 0.083214315128218974 -0.1393579243590608 -0.16736327304762291 0.030964521458800128 -0.19154350899052261 0.019594718880130951 0.15651461474275305 -0.22151574492348136 -0.061647876843109697 -0.15470430641261138 0.11334690222213104 0.13886285896434883 0.25690682395181402 -0.00049451199020184586 -0.32122023441459946 -0.045146581495872529 -0.16758258762196332 -0.11978210012437022 -0.14115366750229782 0.19653082381494705 0.010070868615147367 0.02914100804620531 -0.14539670369027949 0.28791604823629691 -0.12128931768575142 -0.052259285371205541 -0.14537817762107122 -0.088662148046128861 -0.027331287459581369 -0.15663369926222467 -0.0902854170709914 -0.093908510393733352 -0.016746201693463417 0.00042464789650259981 0.26410733059798369 -0.22399619808671875 -0.30021121889970731 0.088310536336587267 -0.10291809654121241 0.1344572948796745 0.16714935906575051 0.35632247670400041 -0.091161591756991595 -0.14281416925399917;0.24284045320375083 0.018698978094590452 -0.20850037686172712 0.13947498486660168 -0.082128226560464354 0.097080455519683903 0.048922948003297613 -0.20315167883592314 -0.023779903653019251 -0.13872380744320897 0.18539185970977082 0.19300665204403378 -0.082231326282974679 0.24620565790928606 -0.073915709923140324 0.22199702833165008 -0.19023410965537266 -0.21185233576455056 0.043876327036317581 0.14107856182847955 -0.24703013772567495 0.199488504379562 -0.042707905454477682 0.21103664230157385 -0.087516101364984292 -0.031056039798837257 0.19687570342249894 -0.23737758504226505 -0.25102438991866416 -0.23741271191615654 0.20618392659568097 -0.18258389945128919 0.048677546132588623 -0.21725622175204323 -0.12340940871243607 -0.094247249859960358 0.18796696208869876 -0.010276836666380369 -0.23891466031909156 0.0430603746215837 0.017352745616304614 -0.25695811481916514 0.07219280718749857 -0.0068275839899554387 -0.26451855570661165 -0.21247804042527188 -0.094415775237797386 -0.24950868582919244 0.22710329091418233 -0.041743677817878473 -0.1552249632709492 0.068160906656180145 0.15237641530771373 0.051952211060660024 0.047605268355956097 -0.0064387631845425203 0.029561977896118051 -0.26877938578859412 -0.016049673144178562 -0.083958808031841414 -0.048167449918197214 0.12754306088418416 0.17714613163414325 -0.25560202109312824 -0.055630227650609126 0.2103456075063356 -0.11707121402047101 -0.066517019146876605 0.1285700948256174 -0.041358923876019166 0.25537180686264971 -0.097169641532518003 -0.24021731085496201 -0.21674552589848273 -0.027976471565067128 -0.1946278269751931 -0.12112460769458129 0.19290100475454641 -0.22882285765666199 0.22018247904915975 0.16782368972995787 0.16727919787929935 0.047813638355816319 0.040511295088113415 -0.036854038940603358;-0.17810160196750702 0.19719630505989094 -0.15779803470071488 0.12317638535778137 -0.21887560162225117 -0.33026482813145719 -0.12839981178680299 -0.019783909682052642 0.25612049521901609 -0.055176216563070216 0.16082568825106736 -0.02749656973556102 -0.24134297059890561 0.16537364668321639 -0.14734635026612902 0.22124670774222352 0.10326924452532246 0.11815094103747847 0.041018200275638905 0.068561409524517822 0.17718278072786384 0.033762225647952275 -0.13790589732968456 -0.016380752328346741 0.21528380477411174 -0.15855659235951589 0.067454537046673521 0.23720198966353334 0.27618410139568395 -0.089685493588589724 0.25442256773470212 0.23738224776902769 -0.014933658281086549 0.077036865315277342 -0.08888887865695623 -0.055694907524087747 -0.25896722794497956 -0.0045205227185509036 -0.18935009498965971 0.10767677051189288 -0.19617720341833519 0.0012308142367964965 0.045472027196862469 -0.12594543237245218 -0.1084018608743683 0.23244494233179838 -0.14166289027007198 0.18597924985534256 0.2662229131733016 -0.096740624206960529 -0.023190397081948966 0.091326921451178475 0.16553202840516731 0.097390209888137319 -0.1574404879468792 0.10278049996159509 -0.035611409620997375 0.24440601275666393 -0.041886218469158 -0.016615491715446903 -0.21013723213754384 -0.31870378222027224 -0.30026888864852291 0.088669303900081056 -0.030160207775045106 -0.036324638303609533 0.12681937169757612 -0.23041529455468379 -0.25149069239217875 0.20466924228275252 0.050967622115503937 0.24545964709020318 -0.046253484755388562 0.051698336777612042 0.2553704901269232 -0.036546394795902271 0.058450565010786555 0.18292073877973239 -0.15703369201478271 -0.14351394506697931 0.165046317604259 0.0020718011599319243 0.18691881946432087 0.12336941267895553 0.22282561184678923;0.2305822395776016 0.17469630384942328 0.19215640936291073 0.061452896028915661 -0.070843679896737302 0.20306966595323181 0.19341963616556285 -0.082638279313880181 -0.33236621944072697 0.174630155689011 -0.087867162655618725 0.30292843177224915 0.26216076587339365 -0.21008869453408921 0.17474177080573738 -0.20422664752979419 0.11715283161249004 -0.18696305214525893 0.040540492777889077 0.10607456256944089 -0.19377420210783344 0.11903192785338783 -0.27422073743148639 -0.35728095890109879 0.42274677160769103 0.21725851755232042 0.1382208151310691 -0.038192818060027944 -0.023211116315727021 -0.17603464988458312 -0.12029189034617947 0.23396929444470504 -0.0028123309829008085 0.12274896092664159 0.14907181003952888 -0.092344954890028558 -0.14883766981554686 0.064968383612595174 -0.039492014562975977 0.22107154939776727 -0.22295343287373717 -0.027710337043426941 -0.054329776850071058 -0.19223147474481847 -0.11291066988022128 -0.16762138183404435 -0.042915623441994219 0.18761857330780554 0.23898630691141201 0.0032872158886991295 -0.17629254394813249 -0.18101692171491157 -0.099239078005530335 0.16035356575625573 0.15412752011239375 0.2495633460291484 -0.057770815765939676 -0.021514816106523942 0.054898124706135649 0.16974480256418911 0.070805090687681579 0.15600300814726878 0.24678289381217744 0.08530756522072161 -0.14849523370540454 -0.04616800997529364 -0.043087805728645387 0.033762492225964891 -0.26996264395719244 -0.068003827446720511 0.11818871857331716 -0.19801898849336588 -0.15190553437328283 0.012631820221979492 -0.063464225211868286 0.052791014635442647 0.18056966421655746 -0.26046401579966072 -0.037715662505690396 0.19366953247301663 0.18761223847943698 -0.056298955484903254 -0.11779108934003618 0.19515931975249717 0.31467499065097371;0.016483522857599076 0.016455234412736094 0.15088026478203331 -0.23763617794103617 0.15802295930216023 -0.14171908996789503 -0.1533988123594244 0.075580962589773953 -0.053114457651266087 -0.16235930401609264 0.12034942035517079 0.13715994434917747 0.2938938056874672 -0.37731821757828876 0.17568452593521555 0.084302034187305322 -0.034453963778152213 -0.0092955098797964861 -0.091694353690419408 0.17609631596724062 0.20292371738108445 -0.0048907533250154818 -0.2208259605294054 0.092917123750999156 0.014596792515060568 -0.11146257037770681 -0.17048301855309284 0.15555759156171675 0.2929760617244267 0.28698975791077697 -0.037381664410780904 0.076400873899538063 -0.026023268423556997 -0.039182074205392055 -0.055522016293136509 0.15827209540220216 -0.25523653992022383 -0.3056884444518928 -0.24892467823404896 0.056666413213256314 -0.28246858498284705 -0.20516451207693578 -0.0065082515209037885 0.065089846440161747 0.018897518324477502 0.2340751435768765 -0.04759773502572346 0.14251915006724797 -0.1380893290087753 0.24445453832883768 0.13027263011512269 0.24156982893066326 0.016092644089599161 -0.097968567212047469 -0.0032925204526555278 -0.11138455760101793 -0.13585257759359531 -0.24006510229752437 0.17510091588851587 -0.075564520179671524 0.0068588003868336866 0.33991984331498265 -0.23999669877084467 0.222055251881218 -0.18671552761956561 -0.18615135021813498 0.064959059600169566 -0.035880738792184022 -0.050445458025121251 0.14875643809860079 0.20821654743960544 -0.06062768675979191 0.028489510847732845 0.34117851996202286 -0.17943272079960731 0.17175550901328487 -0.14853218307691995 -0.41344144435121738 0.19277070230717899 0.18935835130337478 0.017480916672373285 -0.11442299648956861 -0.26717593841790127 0.1229067746661162 -0.13435650995292012;-0.10267918357386373 0.31543895791037252 0.30573636198397114 -0.071831038327113614 -0.31428474119708211 -0.16554359084101544 -0.063761606861679587 -0.17692008470642759 -0.064910965460679843 0.14600809706679496 -0.12867646482787262 -0.055366814528150399 0.063193720731573352 0.038530931726496687 0.015173230660560737 0.16997065858696103 0.046991372822292966 -0.0015312209820077245 0.13687798901990222 -0.04012695967359433 0.19682937743415785 0.246037723631849 0.21779256107702363 -0.16418512823717327 -0.024333775694919384 0.16151829455081884 -0.3496870956683294 0.12710914462307224 -0.20392064347784317 0.12710403788380992 0.10378791511161398 0.28547351399184023 -0.20274383364247175 -0.029729627592365325 -0.12681375790605226 -0.1211832134770736 0.11963346310462182 -0.29167888548254051 0.10106436015994784 0.12737031544369437 0.14007943639225834 0.12218822008646486 0.25884778557272853 -0.014325361707511837 -0.27207462280950334 0.028273713575507613 -0.21623337236886803 0.16464608711871975 0.29008627520878544 -0.074462201067258246 0.14720026990610804 -0.028395892820898178 0.24431770739765826 -0.13605723581481277 -0.054121260071141722 0.009316999481201264 0.057504541616960426 -0.14011915534903352 0.028335962597693845 0.074147978266836861 -0.11101269638398023 -0.24471704137810407 -0.25496343936483895 -0.066922110339716318 -0.12125677897635666 -0.12107839237620996 -0.10499332459497236 0.20441701307305962 0.2046414394192414 -0.037920102520273953 -0.29422483924840431 -0.047244730700983298 0.14903234259821752 -0.035406722925290991 -0.14796336791446463 0.10325909793807579 -0.052845173566305782 -0.12614614441647254 -0.15919654895471941 -0.15024305168989432 -0.050582452099466685 0.03121032597364367 0.14468430917076355 -0.28943176074238103 -0.0083291433690929687;-0.2757038121646086 0.038286595823859911 0.13241768656399655 -0.35717323067599305 0.068110847825850473 -0.074494341031786593 -0.25386050223197171 0.30097914588616603 0.1662287191132498 0.037888387025061747 -0.2733883953891062 0.30499898793504526 -0.085148991139715663 0.24482435660628243 0.22745695500641544 -0.10914959611724154 -0.037301017189828936 -0.24217307097658761 0.045815484933115103 -0.18523032087654237 0.08531877731234451 -0.14036883379356133 -0.048674705691262143 0.058978065663307988 0.1071663309965345 -0.24573796549559784 0.19940890542842143 -0.21559180631508221 0.087438961472524959 0.0036177785614284574 -0.21929629621533814 0.10943802751654957 -0.075452961497259288 -0.085021133658987016 0.0714005525146722 0.18829754612619887 0.050652679180408861 -0.043372800508032112 -0.21161081060992062 -0.1445810289929178 0.096322467186593028 0.3518855182513918 0.091816328605558578 0.022084736307128271 0.016976605386678591 -0.19042521948381932 -0.096495663301047904 0.18339587104447139 0.17156817463423663 -0.038594372673972387 0.25644798415007614 -0.055997497944611292 -0.029079397393285897 0.23419983819448548 0.0287972992857355 0.27874813757070943 -0.10387642909580762 0.064551177755540673 0.11326695873525833 0.048866527442161453 -0.26993266153527762 -0.10507094362776186 -0.18680424061137024 0.094715729895769249 -0.14374957381733033 0.23694839694579448 -0.16172459575256137 -0.033777585026401102 -0.0030329699395653113 0.01589465518109183 -0.29549207768929803 -0.025233530557504952 0.11395158595108373 0.11716152978730481 0.13141255374115937 0.24219037726000064 -0.26598052072527839 0.098235602319435747 0.070306305238231739 -0.19756653266935037 -0.21131737498525166 -0.33966068614937645 -0.010298746662773551 0.070689353476677666 -0.37179173197855275;0.25510250024414755 0.23826432187596933 -0.19876475077744041 0.11716386594150105 -0.10636125844853082 0.24175998346449143 0.16998375992733541 0.23070294958477017 -0.043241972726365936 -0.20118546360632636 -0.020079087327001074 -0.18061914049824107 -0.044431866752287726 -0.09640846753906529 0.033372001799164164 -0.19135883469840087 0.027535346817585089 -0.090522907263895405 -0.085098069991801029 -0.018669790534969533 0.15214772966503218 -0.025583190961527797 0.17819678574872438 0.13609521886296067 -0.0089404240974015111 0.19198046968728874 -0.16929763262761408 -0.24251572532208826 0.069926113858510261 0.26721853209746982 0.16321083381741414 -0.035253851169604292 -0.0034679839209753364 -0.0063598551713665791 0.052600027802794463 0.13955219306914479 -0.20792417496645557 0.058344741134882347 0.10617477021799859 -0.18524253603040186 -0.1567136971757192 -0.17264741949333948 0.074319386747815241 -0.02612877962535207 0.088552892393994928 0.076689197954461635 -0.19404537732403651 -0.21806704344879457 0.12866147081266521 0.13919728981553303 -0.25643774445322509 0.10162276924001366 0.25599244739859839 -0.16675047865094006 -0.21390580683340132 -0.032627072240236164 -0.18092446768691928 0.22902519406066807 0.14840116478495996 0.11121548944174769 -0.24958339443271291 -0.081799163498684213 0.16490293970894268 -0.23080186993194757 -0.022104223799979946 -0.24217247490017654 0.22117629822664334 0.040129728415261745 0.22565229694906586 0.082515097048094704 0.15321238935214548 -0.20112559426349011 -0.24777416631296031 -0.075412472740101072 -0.25816067016628702 -0.24488227231351306 -0.087149576383525842 0.077367718091139445 0.079297093149772582 -0.21133617788767667 -0.16164470368457076 0.11982680039974769 -0.16194309062509113 0.22428641507728325 0.0918663605983671;-0.0011480752712841472 0.27383561299623299 -0.20744794634890112 0.050768308710096591 0.29773536862988426 0.045213496028950306 0.03652931848670684 -0.24492402509059633 0.03960527616485908 -0.035181451003970465 -0.03207578003386595 -0.15617211053504954 0.034267885202143925 -0.0039666717403027772 -0.040049875906303468 0.093743095627605855 0.0065931143629968589 -0.17359898014201922 -0.20940910575503868 0.059831000627461828 -0.18244199147194007 -0.19000028134963723 -0.21578985404185433 -0.26751876095890437 -0.11672668625150943 -0.13551324711848753 -0.11963046889231885 -0.10340761593360787 -0.28582103048257385 0.19452193847818991 -0.061475187421057745 -0.26571937900609144 0.26073785476456773 -0.13019565886384377 -0.16833708366482225 -0.22066083935461747 0.0032649335202687519 0.18084814036233571 -0.12438398383503976 -0.26467641504501638 0.16906051462392588 